#include "policy_weights.h"
#include <stddef.h>
#include <stdint.h>

const int64_t policy_actor_0_weight_shape[] = { 256, 22 };
const float policy_actor_0_weight_data[5632] = {
    0.16886349f, 0.20378676f, -0.26874685f, 0.29887259f, -0.24794362f, 0.13396551f, -0.12807569f, 0.30572051f, 0.14290734f, -0.12101950f, 0.16607095f, 0.05289816f, 0.13257360f, 0.03174109f, 0.11843795f, -0.03625939f,
    0.04317332f, -0.11690137f, -0.16315991f, -0.15941966f, -0.46941575f, -0.07540619f, -0.24900432f, 0.25490883f, -0.05502708f, -0.12662001f, -0.09187149f, -0.28689849f, 0.02186473f, -0.29129180f, 0.14500469f, -0.16995595f,
    0.14567532f, 0.00366550f, -0.08025281f, 0.11138835f, 0.01672299f, 0.13510920f, 0.03279690f, -0.04206345f, -0.00654901f, -0.11073441f, 0.09176698f, 0.31281590f, 0.18266027f, -0.01088259f, -0.06047105f, -0.07993427f,
    -0.27336642f, 0.03297455f, -0.29922968f, -0.15618706f, -0.17920722f, 0.18764357f, 0.08513109f, 0.12177102f, 0.02425263f, 0.03996925f, 0.13632494f, -0.13543995f, -0.05879515f, -0.08892360f, 0.02116755f, -0.22945036f,
    0.13428181f, -0.11702742f, 0.19261032f, -0.36498424f, 0.07887640f, -0.26726767f, 0.22014289f, 0.27001399f, -0.14409603f, -0.34224901f, -0.24173672f, -0.14434150f, -0.11565901f, 0.05847899f, 0.08497734f, 0.16151378f,
    -0.10708506f, -0.13839474f, 0.21729814f, -0.02419730f, 0.07645809f, -0.29637092f, 0.29429480f, -0.13778470f, -0.16177742f, 0.05240879f, -0.04311556f, 0.06632480f, -0.06991404f, 0.24736217f, 0.01545767f, -0.21454279f,
    0.14459135f, -0.10095879f, -0.06343120f, -0.15341407f, -0.18012874f, 0.06047796f, -0.04568169f, -0.08651511f, -0.03211892f, -0.31592062f, -0.19729878f, 0.18987247f, -0.25611797f, -0.07630292f, 0.25274864f, 0.23869507f,
    0.03945932f, -0.41372526f, -0.28607076f, -0.16161095f, -0.10235287f, -0.45383480f, 0.01333713f, -0.19916964f, 0.02754264f, -0.01167817f, -0.00214116f, -0.13895006f, -0.06074596f, -0.04609845f, -0.14292501f, -0.19485453f,
    0.20884775f, 0.12883142f, 0.52889955f, -0.02908417f, -0.33007008f, 0.27270517f, -0.06432575f, 0.13839494f, -0.07135532f, -0.34387562f, 0.19286403f, 0.10582167f, 0.05929162f, -0.13171877f, 0.21736148f, -0.12926289f,
    -0.00373793f, -0.02265754f, 0.11854693f, 0.10817278f, 0.13126685f, -0.42661676f, 0.19617857f, -0.24412948f, -0.40611890f, -0.06000814f, 0.17649931f, -0.32400000f, 0.25747612f, 0.17535973f, 0.21747078f, -0.28291729f,
    0.34660482f, 0.22389214f, 0.02368910f, -0.11200540f, 0.07277553f, -0.01100019f, -0.09880733f, 0.15684174f, 0.03032348f, -0.08658768f, -0.03125567f, 0.06411889f, 0.12599619f, -0.15146317f, -0.13192573f, 0.00863498f,
    -0.14984544f, -0.04137332f, 0.35050723f, -0.34542093f, 0.25757951f, 0.12586705f, -0.10758590f, -0.25617608f, 0.09658501f, 0.04510212f, 0.06713009f, -0.01310464f, -0.03312199f, 0.00538294f, -0.01008198f, -0.04023162f,
    0.30419981f, 0.21497050f, -0.04887163f, -0.30654186f, 0.30096999f, 0.07590799f, 0.11635534f, -0.05833156f, -0.18690045f, -0.18911758f, 0.28030244f, 0.20941979f, 0.07184988f, -0.10396071f, -0.07589110f, -0.13800302f,
    -0.10998399f, 0.05012844f, 0.12540561f, 0.12268025f, -0.19175524f, -0.12995070f, -0.11412202f, 0.22585563f, 0.03326616f, 0.09862442f, 0.14209965f, -0.05268396f, -0.14178874f, 0.24009150f, -0.06859320f, -0.00880164f,
    -0.35685262f, 0.08084917f, 0.03264847f, 0.13870439f, -0.11210167f, -0.20534182f, -0.17322508f, 0.14068356f, 0.14672723f, 0.20320502f, 0.11617522f, 0.00339536f, 0.04171236f, -0.05814424f, -0.31588012f, 0.06584850f,
    0.12491586f, -0.20853294f, -0.02521400f, 0.11936159f, -0.19921227f, -0.10163416f, -0.20804732f, -0.27136841f, 0.16598591f, 0.03327174f, -0.05691668f, -0.15413038f, 0.00633638f, -0.08453449f, -0.10153668f, -0.20289719f,
    0.12363780f, -0.08221541f, 0.02529667f, 0.14078422f, 0.15342538f, 0.26690775f, 0.30766422f, -0.11105212f, 0.10353695f, 0.31505561f, -0.21292353f, -0.02408059f, -0.43053651f, -0.23254989f, 0.14815040f, -0.32901746f,
    0.05184768f, 0.14972910f, 0.19488157f, 0.02213942f, -0.17903097f, 0.09575047f, 0.11729884f, -0.11830965f, -0.19063322f, -0.09524633f, -0.07905435f, -0.02696625f, -0.00543952f, -0.13719422f, -0.22340377f, 0.33933493f,
    0.33099455f, -0.12884346f, 0.01388038f, -0.52738649f, -0.24432553f, -0.38005495f, 0.11061568f, -0.17387855f, -0.04820762f, 0.01912158f, 0.00302103f, -0.09350383f, -0.00724807f, 0.00733682f, 0.08032002f, -0.02964980f,
    -0.18537174f, 0.30397075f, 0.31049764f, 0.12027998f, -0.15668055f, -0.07279471f, 0.35136828f, 0.27663961f, -0.22957873f, -0.07419606f, 0.11335846f, 0.08387414f, 0.12156937f, 0.19344373f, -0.03257583f, 0.06413991f,
    -0.06446961f, -0.00346391f, 0.12825342f, 0.12877093f, -0.04842969f, -0.10522471f, -0.28956693f, -0.20719485f, -0.41144142f, 0.06701815f, 0.18664575f, 0.26995197f, -0.32786745f, -0.19390216f, -0.00695324f, -0.32519948f,
    0.14945036f, -0.00981464f, -0.03519082f, -0.07962973f, 0.03057080f, 0.01929838f, -0.07295567f, -0.16166443f, -0.13184783f, -0.09584730f, 0.11742157f, -0.09202798f, -0.26647484f, 0.42396045f, 0.24498756f, 0.03012948f,
    0.21824260f, 0.30801779f, -0.11601870f, -0.32731161f, 0.20393394f, -0.14703944f, -0.33953100f, -0.10845080f, -0.08965104f, -0.15342622f, -0.17207751f, 0.02782090f, 0.04898594f, 0.10129300f, 0.03042688f, -0.07946052f,
    -0.17685907f, 0.11447312f, 0.13854128f, 0.12549843f, 0.04159684f, -0.13324517f, -0.26004568f, -0.35995117f, 0.19610772f, 0.44769344f, 0.17616642f, -0.11431278f, 0.11351442f, -0.07320316f, -0.01074190f, 0.14814536f,
    0.02972786f, 0.16523838f, -0.14027147f, -0.05829338f, 0.05466486f, -0.05613629f, 0.11881632f, -0.02128224f, -0.00182727f, 0.05169666f, 0.05060988f, -0.01831585f, -0.23908785f, 0.12953159f, 0.09906233f, -0.18687622f,
    -0.24517800f, -0.06231797f, 0.02251632f, -0.05559003f, 0.01333393f, -0.20493478f, -0.17035049f, -0.12456792f, -0.10972358f, 0.00723852f, -0.10368757f, -0.03347171f, 0.26395160f, 0.04398482f, 0.18338737f, 0.03757188f,
    0.08824856f, 0.13774978f, -0.14742230f, -0.34058124f, -0.09581462f, 0.07064712f, -0.17333604f, 0.30738047f, 0.35098487f, 0.15615198f, -0.02838101f, -0.23922049f, -0.06600588f, 0.02679620f, 0.09348220f, -0.05519211f,
    -0.08361532f, 0.04748492f, -0.16393960f, 0.08453456f, -0.05210171f, 0.52029073f, 0.23643538f, -0.05893213f, -0.11254462f, 0.46963650f, 0.11986671f, 0.15133305f, 0.22209786f, -0.71416485f, -0.14479566f, 0.11883032f,
    0.13342795f, -0.18161784f, -0.00873949f, -0.14984426f, -0.07391316f, -0.02252840f, 0.03381263f, 0.06986535f, 0.07666138f, 0.24550056f, 0.03754674f, 0.28979114f, 0.12601370f, 0.02603444f, -0.00001791f, -0.36341864f,
    0.07510696f, 0.33978760f, -0.67959124f, 0.05304270f, 0.23538011f, 0.49402514f, 0.20604566f, 0.16754252f, 0.06636547f, 0.03367751f, -0.12290544f, 0.16139093f, -0.10476945f, -0.08460907f, -0.25330171f, -0.09553317f,
    -0.05221978f, 0.23241650f, -0.60095030f, 0.12622793f, -0.04475220f, -0.58219773f, 0.12023131f, 0.20739268f, 0.41325060f, 0.48263186f, 0.29841962f, 0.33528465f, 0.00844255f, 0.00917954f, -0.01776466f, 0.02787414f,
    0.05346500f, 0.11356119f, -0.04817898f, -0.05976504f, -0.01536689f, -0.16666201f, 0.08252487f, 0.42772594f, 0.13885248f, 0.15347974f, -0.11848547f, 0.01894161f, -0.14876170f, 0.01040133f, 0.19869050f, -0.26160061f,
    0.31691882f, -0.19583163f, -0.07752459f, -0.17151335f, 0.19985229f, -0.14659677f, 0.10793199f, -0.09265035f, 0.08840526f, 0.20530993f, -0.05603009f, -0.10056610f, 0.44285110f, -0.01509536f, 0.05402609f, 0.08093942f,
    0.00907252f, 0.03548972f, 0.11073582f, -0.02288319f, -0.10314097f, 0.11097556f, 0.19646710f, -0.01098390f, -0.18990771f, 0.00493075f, -0.10467986f, 0.19157454f, -0.10621119f, 0.01769434f, -0.06896630f, 0.03174954f,
    0.26977199f, 0.13833258f, 0.05678838f, 0.23659094f, 0.23706074f, -0.09381015f, -0.16816142f, 0.01189916f, -0.02415071f, 0.58075994f, -0.25835851f, 0.03133196f, 0.05231602f, 0.16680656f, 0.06642763f, 0.15743847f,
    0.06813657f, 0.24931534f, 0.02953326f, -0.17192031f, -0.15465221f, -0.08433855f, -0.22250548f, -0.24144243f, -0.28579718f, 0.39236906f, -0.25679088f, -0.21307009f, -0.20482807f, -0.35464317f, 0.24985772f, 0.13016252f,
    0.15088224f, 0.41334882f, -0.06282386f, 0.12115473f, 0.16337168f, -0.18353812f, 0.02203840f, 0.10791894f, 0.03633207f, 0.02984408f, -0.12242813f, -0.02099147f, 0.11313343f, -0.04027566f, 0.18069300f, -0.02005677f,
    -0.01930119f, 0.02738113f, -0.00937773f, 0.04814582f, -0.18883139f, -0.26907828f, 0.25314718f, -0.15994389f, -0.11233795f, 0.04952253f, -0.18715563f, -0.14287743f, -0.03361484f, -0.17787537f, -0.12445719f, -0.02294463f,
    0.16539292f, 0.19372606f, 0.10697215f, -0.08418063f, -0.02134522f, 0.24260618f, 0.16906823f, -0.00602261f, 0.04129430f, -0.19774330f, -0.24659932f, 0.28166252f, -0.20325312f, 0.02026611f, 0.00730540f, -0.01195512f,
    0.00448503f, -0.10896669f, -0.08316289f, 0.08839925f, -0.18864486f, 0.10652787f, -0.09738387f, -0.06515143f, -0.00311188f, 0.15567672f, -0.18151833f, -0.06097448f, -0.17327385f, -0.07962535f, -0.20342852f, -0.05877765f,
    0.07728760f, -0.21554132f, 0.31557167f, 0.15105850f, -0.19934388f, -0.05314965f, 0.04364840f, -0.11044227f, 0.00532151f, -0.07437647f, 0.11142982f, -0.14832357f, 0.18296161f, 0.04746258f, 0.04660513f, 0.07293745f,
    0.00367838f, -0.27881074f, -0.11469174f, 0.20380773f, -0.13032216f, 0.29309213f, -0.26454273f, 0.13872191f, -0.29912224f, -0.11832781f, 0.03081667f, -0.00014432f, 0.07128629f, -0.14568263f, -0.11653681f, 0.08355732f,
    0.23186123f, 0.10291804f, -0.09591848f, 0.13709611f, -0.09924705f, -0.05720400f, -0.30950058f, 0.50924373f, 0.25770131f, -0.04053537f, -0.13562390f, 0.22701390f, -0.02711418f, -0.02606172f, -0.36367583f, -0.15589879f,
    -0.50570923f, -0.19716138f, 0.05494647f, 0.21399654f, 0.05433930f, 0.18716957f, 0.05661999f, 0.11790584f, 0.16009884f, 0.15379621f, 0.00070839f, 0.18476325f, 0.10717398f, -0.48521498f, 0.07819165f, -0.24148238f,
    0.03116792f, -0.20909607f, 0.15206677f, 0.05649508f, 0.05601251f, 0.01405194f, -0.07932426f, -0.15229020f, 0.24286391f, -0.21681985f, 0.15818475f, 0.11657724f, 0.06282819f, -0.22859129f, -0.02355888f, -0.06033970f,
    0.08087560f, 0.02989810f, 0.26307377f, 0.31413355f, 0.23394215f, 0.12010342f, 0.14533173f, -0.35459846f, -0.27777243f, -0.08479871f, 0.47411558f, -0.08417770f, -0.11624725f, 0.14822924f, 0.05011518f, 0.14984599f,
    -0.12249488f, -0.08320095f, 0.08344952f, 0.19862422f, 0.12866993f, 0.00259903f, 0.12217361f, 0.11887084f, -0.06349683f, -0.15463901f, 0.00123654f, -0.16940796f, -0.27069131f, 0.02960272f, 0.10931200f, 0.43203983f,
    -0.46258354f, 0.13194454f, 0.23752747f, -0.07685557f, 0.03633344f, 0.11518439f, -0.14772488f, 0.19930437f, -0.02846298f, -0.05536960f, -0.09456720f, -0.11454652f, -0.19477804f, 0.19325414f, -0.11258861f, -0.05409010f,
    -0.10958397f, 0.21647775f, 0.15968783f, 0.13823587f, -0.21686746f, -0.01997697f, -0.05440723f, -0.13295940f, -0.28960031f, 0.21799779f, 0.01553528f, 0.04733666f, 0.00331698f, -0.05911411f, 0.07835826f, 0.06228378f,
    -0.07599669f, -0.13573672f, 0.01030733f, 0.06328800f, -0.16290945f, -0.18392992f, -0.05154457f, 0.12060912f, 0.07367653f, -0.64611673f, 0.29737684f, 0.22389166f, 0.09480933f, 0.17085263f, -0.17859538f, 0.32526824f,
    -0.08727773f, 0.07641956f, -0.16288526f, 0.10730030f, 0.03786373f, -0.15756014f, 0.00250345f, 0.09611030f, 0.38198385f, -0.13915616f, -0.07721943f, 0.06547920f, -0.05382008f, 0.23834857f, -0.04410465f, -0.62256783f,
    0.44320458f, 0.67162937f, 0.10064523f, 0.47930861f, 0.09661444f, 0.52535838f, -0.10662957f, -0.09041005f, -0.04050178f, 0.03262873f, 0.10916484f, -0.08378421f, 0.07097297f, -0.06055070f, 0.24847655f, -0.08820638f,
    -0.10637235f, 0.06668691f, -0.34288710f, 0.32064679f, -0.04107737f, -0.10071716f, 0.05068844f, -0.15589185f, 0.14079046f, -0.20194677f, -0.08450447f, -0.33255157f, -0.05425576f, -0.05112944f, 0.06126948f, -0.02032883f,
    0.04893771f, 0.14101531f, 0.03264134f, -0.04291857f, -0.14627546f, 0.02930500f, -0.18066821f, 0.29628840f, 0.17698514f, 0.14504290f, 0.20321122f, 0.07130457f, 0.23584427f, -0.32856226f, 0.29676807f, -0.17571251f,
    -0.37061498f, 0.01739193f, 0.09419435f, 0.03711670f, 0.07145613f, -0.10136702f, -0.04070518f, 0.15732907f, 0.03604038f, 0.02334090f, -0.00795445f, -0.00199489f, 0.12627572f, -0.41750181f, -0.00165917f, -0.00340066f,
    0.20494360f, 0.06706086f, -0.10095751f, 0.06118140f, 0.15126050f, 0.34735170f, 0.07809972f, 0.02320683f, -0.16203314f, 0.04291478f, 0.01111952f, -0.06612474f, -0.03537207f, 0.02172255f, 0.12016973f, 0.04885617f,
    -0.18192066f, -0.00280939f, 0.07146870f, -0.12085464f, 0.04686908f, 0.09759802f, 0.24560373f, 0.02264563f, -0.07135522f, 0.06702724f, -0.28600162f, 0.22390327f, -0.08200603f, -0.16585714f, -0.14257444f, 0.20266770f,
    0.12696646f, 0.09486952f, 0.11488128f, -0.04231551f, -0.00639830f, 0.02802334f, -0.11875377f, -0.02885163f, -0.05241617f, 0.11746690f, -0.25250173f, -0.00778153f, 0.22734939f, -0.18747741f, -0.24947535f, 0.44802693f,
    -0.11098479f, 0.02844527f, 0.40621835f, 0.15149246f, -0.08906759f, -0.06206850f, -0.00841242f, -0.04567801f, -0.07942416f, 0.02447183f, 0.01849490f, 0.00410942f, -0.25286850f, -0.09141912f, -0.15942764f, 0.09629437f,
    -0.54647148f, -0.04770423f, -0.05313878f, -0.27794877f, -0.26849025f, 0.12957038f, -0.07094763f, 0.11064760f, 0.04253064f, 0.18050902f, 0.10702018f, -0.16534247f, -0.13843308f, -0.09133951f, 0.16167490f, -0.00298680f,
    -0.16163416f, 0.02045318f, -0.21642281f, -0.13730714f, 0.00243448f, 0.20574936f, 0.02657401f, -0.05115524f, -0.03674769f, -0.28167954f, 0.07964467f, 0.18315850f, 0.17204447f, -0.10090660f, 0.30267513f, -0.03808812f,
    -0.02149914f, 0.11508296f, 0.18003644f, 0.17230040f, 0.03008708f, -0.05338317f, 0.14648479f, 0.17249380f, -0.26142606f, 0.01023989f, -0.23861676f, -0.49521187f, 0.19498079f, 0.11956546f, -0.08947163f, 0.11877199f,
    0.00396740f, -0.25499368f, 0.37718704f, -0.21681960f, 0.08244190f, -0.09258722f, -0.02359705f, -0.20373781f, 0.03226038f, -0.08831218f, -0.08708357f, -0.00257600f, -0.09713980f, -0.01042292f, -0.01626009f, -0.03036274f,
    -0.14202058f, 0.14493118f, 0.30698562f, -0.24288204f, -0.06973556f, 0.04956853f, -0.27771023f, 0.17546532f, -0.21624094f, 0.11040977f, 0.35460311f, 0.25089726f, -0.19097148f, -0.09119049f, -0.17182265f, -0.13028587f,
    0.08566127f, -0.02650382f, 0.06824036f, -0.08099462f, -0.12984857f, -0.11080661f, 0.06061113f, 0.11851004f, -0.01629061f, -0.28450426f, 0.02809850f, 0.28421575f, 0.31299546f, -0.41413757f, 0.12565096f, -0.09530655f,
    -0.63202065f, -0.14769447f, -0.03425994f, 0.03684786f, 0.02438107f, -0.03725185f, 0.03024122f, 0.05329616f, -0.01369391f, -0.02572177f, 0.31493655f, 0.06741478f, -0.29399347f, -0.90706974f, 0.49703521f, 0.07316711f,
    0.07403389f, -0.06499736f, -0.25560060f, -0.12834948f, -0.21344851f, 0.11732192f, 0.17300352f, 0.24142624f, -0.15597236f, 0.10726356f, -0.04608129f, 0.11460823f, 0.12531045f, 0.17043622f, 0.11868080f, 0.10931914f,
    -0.04118329f, 0.11795139f, -0.05751185f, 0.10473472f, -0.13035983f, -0.13014953f, -0.20221351f, 0.00192519f, -0.06363445f, 0.07743952f, -0.29646814f, -0.49639931f, 0.10845941f, 0.18831037f, 0.13332315f, 0.15313335f,
    -0.11557806f, -0.09866929f, 0.01672952f, 0.19656058f, -0.19254068f, 0.07580567f, 0.17740244f, 0.04889964f, -0.13960429f, 0.45254737f, -0.00705440f, 0.05560229f, -0.22216502f, -0.20778906f, -0.07100181f, 0.49242949f,
    -0.25736240f, 0.43237883f, 0.10984842f, 0.28022695f, -0.01281183f, 0.12762117f, -0.02735302f, -0.17712341f, -0.08005106f, 0.14651619f, -0.09502919f, 0.03611205f, -0.02676925f, 0.14292718f, 0.17523539f, 0.21941923f,
    -0.38203090f, -0.04979319f, 0.19108364f, -0.05488187f, 0.00497085f, -0.32145250f, 0.05879674f, 0.26983348f, -0.02318048f, -0.05519012f, -0.18048505f, 0.21348822f, -0.03728800f, -0.14353921f, 0.21558996f, -0.05337117f,
    0.00912460f, 0.16457582f, -0.17797318f, -0.09659237f, 0.21357842f, 0.14504823f, 0.05130683f, -0.14631893f, 0.01332085f, -0.35979629f, 0.01882189f, -0.37617242f, 0.50950420f, 0.11889683f, -0.36874297f, 0.07470629f,
    0.04549303f, 0.09305290f, -0.10091766f, -0.01576321f, 0.13732061f, 0.06791318f, -0.16039634f, 0.16353808f, 0.09242643f, 0.22447586f, 0.15104438f, -0.45515618f, -0.08520607f, 0.14892399f, -0.15104064f, 0.12512384f,
    -0.14959934f, 0.11707878f, -0.24880013f, -0.06497236f, -0.17623842f, 0.18952481f, 0.22341736f, 0.10942413f, 0.14006963f, 0.06334205f, 0.16277741f, -0.01242262f, -0.00195468f, 0.00967139f, -0.23419918f, -0.29502448f,
    -0.01413908f, -0.02813024f, -0.25727510f, 0.01640031f, 0.11037702f, 0.29019916f, -0.10197189f, 0.19886547f, 0.11393376f, -0.35135600f, -0.17145368f, -0.39911050f, -0.13747129f, -0.09831837f, -0.00078370f, -0.05494162f,
    -0.05626725f, -0.05877344f, -0.03454524f, 0.12365871f, 0.05370238f, -0.15957777f, 0.10143691f, 0.32419720f, 0.20855033f, 0.09787554f, 0.23098503f, -0.34036782f, 0.10067116f, 0.29177630f, 0.05741580f, 0.30332604f,
    0.27722582f, 0.14589390f, 0.07016061f, -0.10902436f, -0.16220713f, 0.06773045f, 0.07938533f, -0.10928885f, 0.09710022f, -0.13135374f, 0.25958666f, 0.20477773f, 0.06038482f, -0.11974079f, 0.18761922f, 0.15147620f,
    0.08679613f, -0.15483291f, 0.20838609f, -0.04311360f, 0.29515135f, 0.06284071f, 0.09719698f, 0.20819394f, -0.04022820f, 0.01587190f, -0.03102470f, -0.02745185f, 0.11714121f, 0.00314960f, -0.16494691f, 0.00486051f,
    -0.06308256f, 0.10416865f, 0.07439830f, -0.30814090f, 0.17729445f, -0.00720259f, -0.06750999f, 0.50890946f, -0.14759514f, 0.10054992f, -0.07556511f, -0.31688052f, 0.10956350f, 0.06790620f, -0.18378830f, -0.07743635f,
    0.16978374f, 0.19704036f, -0.12476790f, 0.11948664f, -0.02376240f, -0.14964172f, -0.10137884f, -0.01031687f, -0.11307718f, 0.10658198f, 0.19678161f, 0.08550773f, 0.26763469f, 0.15837677f, -0.18840824f, 0.32184678f,
    0.00484011f, 0.11898412f, 0.04788120f, 0.16586567f, -0.18471336f, 0.11099859f, 0.21007879f, -0.15220250f, 0.01514450f, 0.05502436f, 0.19787396f, 0.07976858f, 0.13333939f, -0.21032330f, 0.29465744f, 0.31519157f,
    -0.80159503f, -0.13092919f, 0.02781504f, 0.15804000f, -0.14322107f, 0.18910745f, -0.14496531f, 0.01441044f, -0.06243664f, 0.33847979f, 0.18305495f, -0.08898811f, -0.00525002f, -0.01241459f, 0.08590224f, 0.17096503f,
    0.07004479f, -0.07779513f, 0.12917215f, -0.17404930f, -0.04130022f, 0.18761194f, -0.41116953f, -0.01237345f, -0.10224690f, 0.05109152f, 0.12172817f, 0.33330089f, -0.47698444f, -0.25120759f, -0.01914204f, 0.38282090f,
    -0.18433596f, 0.08892103f, -0.12667079f, 0.04460211f, 0.23588280f, 0.11110998f, -0.07820576f, 0.10775040f, 0.22972141f, -0.19822477f, 0.31652218f, 0.70840085f, -0.18545930f, -0.13162638f, 0.05475672f, 0.02051171f,
    0.14016196f, -0.30235207f, -0.06440261f, 0.16472991f, -0.32788706f, -0.07724183f, 0.04171129f, -0.14254554f, 0.06290559f, -0.02376667f, 0.12886669f, -0.06592934f, -0.07984156f, 0.13172802f, 0.07664388f, -0.19360463f,
    -0.26161680f, 0.08381786f, 0.09555055f, 0.04836430f, 0.02672110f, -0.41138494f, 0.04559606f, -0.00492505f, 0.31939510f, 0.22482978f, -0.03439970f, 0.24020065f, -0.01318931f, -0.18193406f, 0.08884651f, 0.02190211f,
    0.17279387f, -0.05059719f, 0.15493728f, 0.08446576f, 0.26314613f, -0.28186837f, 0.24345218f, -0.13561238f, 0.07406417f, 0.08462743f, -0.15904085f, 0.13302526f, -0.12009145f, -0.35068774f, 0.00091531f, -0.15927897f,
    0.24284673f, -0.29384702f, 0.12754117f, -0.08393268f, -0.01425563f, 0.07545028f, -0.08285895f, -0.09398501f, -0.05791974f, -0.15678053f, -0.09762539f, 0.17194022f, -0.20601229f, -0.11161935f, 0.41713199f, -0.09907473f,
    -0.09861178f, -0.30114391f, 0.15609530f, -0.16436416f, -0.04502307f, 0.22319491f, -0.54000580f, -0.31484595f, -0.19564784f, 0.04711486f, 0.00898647f, 0.05763328f, 0.04410215f, 0.12356900f, -0.03020339f, -0.10865454f,
    0.27302846f, -0.10450687f, -0.14014289f, -0.58895087f, 0.06114760f, -0.06440123f, 0.25853723f, 0.01081386f, 0.10729659f, 0.16106446f, 0.07568114f, -0.02422458f, 0.10605049f, -0.05781430f, -0.18244736f, 0.01133318f,
    -0.07378770f, 0.06970856f, 0.03098878f, -0.15297270f, -0.20363705f, -0.10407232f, 0.35033667f, 0.25472641f, -0.19318955f, -0.00788015f, 0.30268964f, -0.18345259f, 0.13566774f, 0.15073778f, 0.12753664f, -0.28704450f,
    0.24998924f, 0.07781886f, -0.04791208f, -0.31044671f, -0.08803214f, 0.02175225f, 0.03587727f, -0.05764691f, -0.03420586f, -0.08555838f, 0.11354952f, 0.00793156f, 0.32168946f, 0.35018983f, -0.02501267f, -0.28866974f,
    0.15235944f, 0.14659223f, -0.08082893f, 0.38937017f, -0.15312895f, -0.03723232f, -0.34532064f, -0.24216399f, -0.25655040f, -0.01682851f, -0.15468316f, -0.14781938f, -0.09575783f, -0.07424659f, 0.15358050f, 0.18045470f,
    0.01181932f, 0.13773786f, -0.07314129f, -0.17175172f, -0.18427446f, 0.21524557f, 0.02878304f, -0.29978555f, -0.16509522f, 0.15742145f, 0.22754055f, -0.13929316f, 0.35660121f, -0.27576515f, -0.05983339f, -0.43033037f,
    0.15098289f, -0.16827123f, 0.07587754f, -0.04646226f, 0.04791719f, 0.07307218f, -0.04636648f, 0.10183380f, 0.22095720f, 0.23489009f, 0.21721646f, 0.04626778f, 0.33899534f, 0.17865421f, 0.17279872f, -0.28638273f,
    0.15334582f, 0.18938294f, 0.08626144f, 0.41454393f, -0.03749990f, -0.03855163f, -0.02942397f, 0.07747456f, 0.03495386f, -0.03131478f, 0.12209101f, 0.07564154f, -0.09789541f, 0.00110014f, 0.06268952f, -0.15023249f,
    0.12361515f, 0.05230693f, -0.30602074f, 0.03049548f, -0.06648784f, 0.13304727f, 0.19181737f, 0.31532967f, 0.17220271f, -0.06498685f, 0.15904324f, 0.02171069f, -0.13645072f, -0.08557680f, -0.04402757f, 0.02030203f,
    0.08904640f, 0.07533474f, 0.12765685f, 0.02998210f, -0.01280761f, -0.11829542f, -0.10300100f, 0.08703456f, 0.00240329f, 0.09319604f, 0.22427484f, -0.04200052f, -0.19252217f, 0.18538284f, 0.07671894f, 0.08075901f,
    0.13818559f, 0.15973698f, 0.01143840f, 0.03028796f, -0.07837206f, -0.06569403f, 0.02371532f, 0.01742459f, -0.07359660f, 0.09141733f, -0.04855330f, -0.01539695f, -0.05659817f, -0.00346059f, -0.31084952f, 0.08753014f,
    0.03402540f, 0.16971785f, -0.08783525f, 0.33124447f, 0.00259907f, 0.13288790f, 0.06132167f, 0.18575607f, 0.06292243f, -0.18808742f, 0.05511834f, -0.10828961f, -0.05415056f, -0.12167226f, -0.09817327f, 0.16052535f,
    -0.20164564f, -0.00903876f, -0.09435207f, 0.48755053f, -0.01328794f, 0.21323834f, -0.07943088f, -0.05613375f, 0.09252255f, 0.17764704f, 0.07260627f, 0.13412361f, -0.21657942f, 0.02138621f, 0.20118652f, -0.13024594f,
    -0.01176616f, -0.05272742f, 0.19161722f, -0.07144847f, -0.14821504f, 0.02249725f, 0.11790705f, -0.09582587f, 0.26582694f, -0.05486529f, 0.00914006f, -0.15987989f, 0.05631623f, 0.10963071f, 0.27368394f, -0.34169909f,
    0.09437335f, 0.21495561f, -0.32778272f, -0.42895681f, -0.18524550f, 0.01725421f, 0.08958349f, -0.00509700f, 0.04705109f, 0.05791169f, -0.08647825f, -0.02480201f, 0.01236594f, -0.13524285f, 0.29036444f, -0.30558625f,
    0.23216249f, -0.14674197f, -0.01361994f, -0.18576077f, 0.23678288f, -0.20515768f, 0.13579462f, -0.58939147f, -0.13189748f, -0.09639860f, 0.11432944f, -0.00124009f, -0.03763321f, -0.00477312f, 0.05383201f, 0.03677472f,
    -0.15897556f, 0.03681040f, -0.20621161f, 0.11484087f, 0.13350794f, -0.44323128f, -0.19119380f, 0.14919661f, -0.13230217f, 0.31621674f, 0.02921163f, -0.03472291f, -0.29022735f, -0.40857625f, 0.25622225f, -0.16585922f,
    -0.01779674f, 0.08824334f, 0.01163810f, 0.11375328f, 0.04354495f, 0.13846456f, -0.13949008f, -0.03494843f, -0.41537356f, 0.15208530f, -0.24192220f, 0.24215348f, 0.23528203f, 0.14620078f, -0.01862639f, -0.26845503f,
    -0.14158101f, 0.11986905f, -0.01224418f, -0.01032938f, -0.24791278f, 0.22741553f, 0.22040869f, -0.07934719f, 0.07911084f, 0.03438545f, 0.10070937f, -0.01170867f, 0.05927688f, 0.12446208f, 0.14664584f, 0.18926296f,
    0.01297040f, -0.08868727f, -0.10971031f, -0.13810626f, 0.10396302f, -0.00727568f, 0.01110161f, -0.25940791f, 0.12779522f, 0.23322064f, -0.07186747f, -0.40420723f, -0.14238276f, 0.05393875f, 0.16223706f, -0.09162241f,
    -0.03482816f, -0.14806391f, -0.07866021f, 0.21432342f, 0.15202056f, -0.14537337f, 0.14693804f, 0.24872464f, -0.03764981f, 0.07751619f, -0.03776107f, 0.20295520f, -0.05664756f, 0.11353472f, -0.11818086f, 0.09586726f,
    0.18199664f, 0.08361997f, 0.05159520f, 0.19554128f, 0.00339445f, 0.01405277f, 0.16934839f, 0.19036409f, -0.09915522f, 0.14603366f, 0.09761052f, 0.10004942f, 0.19231065f, 0.10405302f, 0.06212901f, 0.22343893f,
    -0.16171488f, -0.25076708f, -0.35109502f, 0.21054421f, -0.32285810f, 0.02281791f, 0.15828413f, 0.32873610f, 0.00979617f, 0.04924055f, 0.12664047f, -0.07796081f, -0.18293190f, 0.05913095f, 0.18975939f, 0.03213741f,
    -0.10625611f, -0.23739462f, -0.12994553f, -0.04476098f, -0.22891839f, 0.03741724f, -0.21784513f, 0.28276253f, 0.06418261f, -0.40990779f, -0.01636338f, -0.11180856f, -0.28591329f, -0.42733133f, 0.01913384f, -0.25757402f,
    -0.12449500f, 0.14785536f, -0.01323591f, -0.06738032f, -0.06286253f, -0.15508245f, 0.27151972f, 0.09991680f, -0.15420458f, -0.28642252f, 0.61344516f, -0.08190826f, -0.04352582f, -0.06965551f, -0.11453105f, -0.11755640f,
    0.30084670f, -0.15051863f, -0.08181213f, -0.33033597f, -0.11645126f, 0.15374777f, -0.05015394f, 0.19027612f, -0.03550741f, -0.07805148f, -0.11140375f, 0.14683661f, -0.08041356f, 0.19398281f, 0.06843293f, -0.13023874f,
    0.21076331f, -0.07588749f, 0.06580384f, -0.02859887f, -0.03593078f, 0.31683347f, -0.14509365f, -0.27293161f, 0.05778398f, -0.10245535f, 0.11936541f, -0.04006522f, -0.04277846f, 0.04741549f, 0.13912079f, -0.06717561f,
    -0.02632671f, 0.06662186f, 0.08427436f, -0.17793304f, -0.25028041f, 0.65718716f, -0.03694231f, 0.06393677f, 0.17520770f, -0.08800210f, 0.16528881f, -0.11726838f, 0.17246313f, -0.06130897f, 0.14818573f, 0.14537214f,
    -0.07712047f, -0.24786121f, -0.18513973f, 0.14926332f, 0.10186223f, -0.10829064f, 0.09941581f, 0.13592465f, -0.11224861f, 0.35880506f, -0.04186255f, 0.20168230f, 0.38080263f, 0.08996551f, 0.08788333f, 0.10155586f,
    0.09057448f, 0.05830082f, -0.12528993f, 0.05961798f, -0.04342948f, 0.02083523f, -0.03588050f, 0.00467474f, -0.13588943f, -0.08070702f, 0.10584737f, 0.11254792f, 0.12998861f, -0.04411839f, -0.05953843f, -0.17661013f,
    0.18500167f, 0.21574460f, -0.10973678f, 0.14667603f, -0.19238858f, -0.34477830f, 0.00424431f, -0.18268846f, 0.42989463f, 0.00809553f, 0.23744825f, -0.10429996f, 0.08374580f, -0.17129427f, -0.06908623f, 0.00415769f,
    0.08369488f, 0.03923915f, -0.17710736f, 0.07407872f, -0.11351962f, -0.06651617f, -0.12979247f, -0.32860878f, 0.38067973f, -0.16675974f, -0.35670564f, -0.02431016f, 0.10121976f, 0.11922041f, 0.30872071f, -0.47132665f,
    0.14516425f, -0.23493591f, -0.00844778f, -0.10518660f, 0.15899996f, -0.02883959f, 0.05779517f, -0.11487991f, 0.23472583f, 0.12499786f, -0.19868439f, -0.13034888f, -0.18269627f, 0.04074236f, -0.37356386f, 0.07018252f,
    0.23983662f, -0.37666222f, 0.26577532f, 0.18528718f, 0.46996570f, -0.41592276f, 0.28389713f, 0.00887633f, 0.00273500f, 0.13084018f, -0.16619329f, -0.09772310f, 0.22683714f, -0.11201812f, -0.15819095f, 0.02038415f,
    0.09841063f, 0.06908676f, -0.07901274f, 0.32960021f, -0.00857506f, 0.01376407f, 0.13504554f, -0.22990990f, 0.01700386f, 0.09271295f, -0.08227750f, 0.33672351f, -0.14266425f, -0.37514684f, -0.14359528f, 0.16716705f,
    -0.05444207f, 0.09766183f, 0.14880894f, 0.00018105f, -0.13455907f, -0.08946918f, 0.01747431f, 0.13279377f, -0.30682084f, 0.17087421f, 0.12385174f, 0.12871115f, 0.13350980f, 0.03990676f, 0.14257248f, 0.05248252f,
    0.20593023f, 0.11923944f, -0.20737436f, -0.29308960f, -0.06262266f, 0.03121988f, -0.00894946f, 0.09989004f, 0.09723523f, -0.10543645f, -0.16487387f, -0.02748336f, 0.02154074f, 0.07193122f, -0.09598119f, 0.08767333f,
    0.13555795f, -0.15784104f, -0.12931719f, -0.21320800f, 0.15088512f, 0.17279764f, -0.01003075f, -0.24203111f, 0.26026857f, -0.02750808f, 0.06027373f, -0.13832824f, -0.04619696f, -0.10973469f, -0.05586526f, -0.19913419f,
    0.15834829f, -0.03866683f, -0.05564921f, -0.05180861f, 0.09461422f, 0.26527807f, -0.00967920f, 0.02638841f, 0.09683732f, 0.17892244f, -0.34583434f, 0.25509968f, -0.03311740f, -0.17679848f, 0.44106498f, 0.33916575f,
    -0.08804145f, -0.15372697f, -0.02827350f, -0.11760171f, -0.03400872f, -0.18675846f, 0.10491717f, 0.13921109f, -0.16000526f, -0.25633284f, -0.20168923f, 0.61815035f, -0.05110039f, -0.04284853f, 0.01807542f, 0.28556538f,
    0.05271169f, 0.28531530f, -0.21117972f, -0.25657901f, 0.19234857f, -0.11841121f, -0.06852706f, -0.04035699f, 0.07142249f, 0.09515104f, -0.07588171f, -0.17242226f, -0.00054217f, -0.02279801f, 0.09901928f, -0.09285614f,
    0.15304530f, 0.67897844f, 0.17699906f, -0.11387902f, -0.03250407f, -0.10166328f, -0.14081760f, 0.38362211f, -0.57854915f, 0.09187503f, 0.02334315f, 0.10883946f, 0.14858907f, 0.09666521f, -0.00580479f, 0.10697921f,
    -0.14786616f, 0.15563168f, -0.02490657f, 0.00403023f, -0.12434305f, 0.21007204f, -0.34215802f, -0.43841392f, -0.13202485f, -0.12344395f, 0.10579681f, -0.21894173f, 0.00977698f, 0.31605425f, 0.24651566f, 0.05920425f,
    0.37154177f, 0.11681982f, 0.00235971f, -0.18057071f, 0.19958818f, -0.01017556f, -0.07500743f, -0.11590413f, 0.01403023f, 0.11921658f, 0.00343472f, 0.13611980f, 0.12979609f, 0.03703599f, 0.34005246f, 0.02065532f,
    -0.07250411f, 0.07818427f, 0.06726917f, 0.09977560f, -0.08843409f, 0.17673902f, 0.03018527f, -0.02159055f, 0.06878027f, 0.08157205f, 0.11081427f, 0.16288337f, 0.03743272f, 0.00589889f, 0.18305641f, -0.18767671f,
    0.12315799f, 0.13280763f, -0.03596272f, -0.22163559f, -0.34345114f, 0.27210736f, 0.11400524f, 0.15108530f, -0.24720554f, -0.57010508f, -0.06621140f, 0.05633643f, 0.05726396f, -0.41810015f, 0.13712302f, 0.02971799f,
    0.18588243f, 0.15663734f, -0.03372403f, -0.19799639f, 0.09043149f, 0.06820383f, 0.00250058f, -0.12649852f, -0.06379819f, -0.15187390f, 0.31384107f, 0.10000052f, 0.16443472f, -0.03844264f, -0.13943286f, 0.12065846f,
    0.26868346f, -0.02111238f, 0.32778579f, 0.14763996f, 0.11511653f, -0.02947288f, -0.17523210f, -0.04313314f, 0.16176358f, 0.12706281f, 0.07202958f, -0.05620811f, -0.25034717f, -0.14000341f, 0.19713904f, 0.09940500f,
    -0.12854499f, 0.02042481f, -0.18592167f, 0.15623423f, 0.11267361f, 0.10821362f, -0.24483687f, -0.53846633f, -0.14239785f, 0.15049601f, -0.11251040f, 0.13451208f, -0.17053244f, -0.14720866f, -0.12471346f, -0.04001237f,
    -0.05717310f, -0.03582935f, 0.16850848f, -0.18519691f, -0.04412359f, 0.09210702f, -0.06060708f, 0.26587480f, 0.05465844f, -0.08904690f, -0.20875840f, -0.02765260f, -0.05095006f, -0.00288813f, 0.10579528f, 0.22411768f,
    0.07287300f, -0.00864322f, -0.03364144f, 0.00340200f, -0.06244332f, 0.16313525f, -0.20491888f, 0.10266189f, -0.25331989f, -0.15952224f, 0.02459524f, 0.06265942f, 0.23412454f, 0.07612111f, -0.08010729f, 0.05823709f,
    -0.20346251f, 0.09792236f, -0.15997565f, 0.05935688f, 0.40476665f, -0.19937213f, -0.00268220f, -0.18384010f, 0.00402808f, -0.16171297f, 0.00792911f, -0.20068631f, 0.21657230f, 0.14665805f, -0.31419814f, -0.30682153f,
    -0.00587242f, 0.39089143f, -0.03881468f, -0.18371984f, 0.05645281f, -0.15899493f, 0.02753558f, -0.29199067f, 0.39850688f, -0.02876180f, -0.24249902f, -0.29465652f, -0.04512686f, -0.22439769f, 0.06625135f, -0.00184281f,
    -0.09467349f, -0.09527884f, -0.00333323f, -0.12322860f, -0.06930809f, 0.17394792f, 0.29893738f, -0.38059407f, 0.58404535f, -0.02646213f, -0.21936785f, -0.16691130f, 0.31521347f, 0.37942103f, 0.00600947f, -0.27415034f,
    0.43584710f, 0.20387401f, 0.13628551f, -0.19591139f, -0.15361997f, -0.09313074f, 0.03877985f, -0.15042956f, -0.15526165f, -0.07716576f, -0.19710656f, -0.14726177f, 0.17193227f, 0.19602257f, 0.26472118f, 0.01452259f,
    -0.09099204f, 0.25390241f, 0.14768031f, -0.16783386f, -0.29894650f, -0.29409111f, 0.14243512f, -0.23655760f, 0.11630294f, -0.08231257f, -0.17247987f, -0.12619300f, -0.06945743f, 0.01789618f, -0.12870689f, -0.10720820f,
    0.02628615f, -0.04409495f, -0.27310097f, -0.21275881f, 0.13487034f, 0.17419744f, 0.08462331f, -0.11787939f, 0.17145708f, -0.13929984f, 0.04609457f, -0.12229892f, -0.25865313f, -0.58226973f, 0.02176227f, -0.13820490f,
    -0.04981248f, -0.04200547f, 0.15122561f, 0.18176642f, 0.07676642f, -0.00855445f, -0.11600572f, 0.04962864f, -0.16944742f, -0.03332656f, -0.10014383f, -0.03596250f, -0.17325661f, 0.42014486f, 0.15816824f, -0.43421999f,
    -0.20911862f, -0.33757710f, -0.30692357f, -0.31959340f, 0.16757070f, 0.02993809f, -0.08417245f, -0.00291921f, 0.08468904f, 0.03548143f, -0.01671547f, 0.00523496f, -0.05911812f, -0.09409963f, -0.23736469f, -0.10399253f,
    0.24963754f, 0.13462935f, -0.00604978f, -0.07069650f, 0.24004026f, -0.01937724f, 0.24493873f, -0.05444912f, -0.08140104f, -0.28852814f, 0.12472636f, 0.04485969f, 0.17119691f, 0.12586071f, -0.00411767f, 0.15040720f,
    -0.00533589f, 0.18240835f, 0.30441645f, 0.02434370f, -0.03299653f, -0.65895474f, 0.13681264f, 0.13601802f, -0.14996381f, 0.06019214f, -0.30876264f, 0.05197574f, -0.10965426f, 0.03727828f, -0.18096496f, -0.12272123f,
    0.03876834f, 0.19744982f, 0.17393419f, -0.12413853f, 0.06071770f, -0.13630092f, -0.11698368f, -0.01738139f, -0.20976959f, -0.13405335f, -0.16784586f, -0.39371338f, 0.02660966f, 0.19559994f, -0.15658881f, -0.06165653f,
    -0.22290295f, -0.03343427f, -0.56796056f, 0.05323427f, 0.05413302f, -0.00184625f, 0.12823145f, -0.11659443f, -0.11369480f, 0.06271227f, -0.11774126f, 0.01287216f, 0.13828863f, -0.06375954f, -0.20384729f, 0.00311121f,
    -0.31846115f, 0.45560843f, -0.19670373f, 0.09891271f, -0.26581237f, -0.51717132f, 0.18583214f, 0.54164749f, 0.24671037f, 0.13067952f, 0.01184193f, 0.30730191f, 0.00987832f, -0.01084427f, -0.01252735f, -0.14653406f,
    -0.14582950f, 0.15091580f, -0.14967178f, 0.14138262f, 0.08934189f, 0.05919828f, 0.23202462f, -0.24415247f, -0.23731504f, 0.20618352f, 0.15032955f, -0.16139798f, -0.07342624f, -0.40171888f, -0.04325445f, 0.16473131f,
    -0.22374481f, -0.07856925f, 0.00119532f, 0.12399197f, 0.14998484f, 0.02994243f, -0.08627638f, -0.04632399f, 0.17323284f, 0.15177558f, 0.10860924f, -0.00352881f, 0.11037632f, -0.67888087f, 0.28964913f, 0.13415633f,
    0.00578948f, -0.38144344f, 0.42053986f, -0.11116837f, 0.57468826f, -0.08811194f, -0.21412252f, -0.41066468f, -0.11196516f, 0.01404245f, -0.09020304f, -0.08979553f, 0.10850164f, 0.10582228f, 0.00735327f, -0.07893097f,
    0.10206334f, -0.01379526f, 0.29275554f, -0.28177065f, -0.23891366f, -0.03179548f, -0.18910629f, -0.02224564f, 0.07568021f, 0.26858914f, -0.37292323f, 0.31713632f, 0.06811028f, -0.09184219f, -0.07229559f, 0.00768115f,
    0.11672720f, 0.11391991f, 0.09460965f, -0.01735340f, 0.18722504f, -0.09044591f, -0.17685001f, -0.07334464f, -0.33855474f, -0.19507161f, -0.69108939f, 0.15956756f, 0.00701692f, -0.11555308f, -0.34874871f, 0.35807317f,
    -0.16564791f, 0.40486050f, 0.22578818f, -0.03286338f, -0.01233705f, 0.14492363f, 0.16337724f, -0.03451151f, 0.06737833f, -0.12044927f, -0.07622567f, 0.11551182f, -0.07003833f, 0.31452623f, 0.15443365f, -0.18286768f,
    -0.22327852f, 0.27287722f, -0.01346089f, -0.21258065f, 0.01438001f, -0.12892565f, 0.30884629f, -0.06034899f, 0.19354850f, 0.11020246f, 0.02207245f, -0.09738044f, 0.14453429f, 0.11253779f, -0.13919039f, 0.16027415f,
    0.06227348f, -0.05334957f, -0.20119199f, 0.08620309f, -0.24668773f, -0.21104963f, 0.30782977f, -0.05365848f, 0.21481661f, 0.07570925f, -0.19129544f, 0.08856396f, -0.22284646f, -0.13209233f, 0.33629841f, 0.05239239f,
    -0.09602547f, 0.16054936f, 0.04998247f, 0.02237448f, -0.08806961f, 0.04739609f, 0.00773113f, 0.12743005f, -0.14565907f, -0.07800183f, 0.00127523f, 0.45016161f, -0.14015344f, 0.18610419f, 0.03260414f, -0.08395880f,
    0.12827843f, -0.29092622f, -0.17070942f, -0.07386085f, -0.03704845f, -0.14425138f, 0.19356938f, -0.13443986f, -0.01099657f, -0.03508585f, -0.00026148f, -0.01997950f, 0.15692665f, -0.07591755f, -0.08682565f, 0.06238798f,
    0.17498729f, -0.07319990f, 0.12360677f, 0.04184469f, 0.14873883f, 0.23268463f, 0.19285488f, 0.13677348f, -0.53684384f, -0.45032156f, 0.01311249f, 0.11510202f, -0.08029553f, 0.20195569f, 0.01922946f, 0.04734646f,
    0.02930887f, 0.02016305f, 0.17906234f, -0.04562952f, 0.18677692f, -0.17744994f, -0.20622651f, 0.27638164f, 0.10115819f, 0.08110058f, 0.16691980f, -0.27684957f, -0.00522576f, -0.04945999f, 0.01218401f, 0.20651500f,
    -0.30951840f, 0.38170040f, -0.10521797f, 0.04475420f, 0.12332084f, -0.17017861f, 0.12157378f, 0.01729478f, 0.09784845f, 0.15238057f, -0.05887867f, -0.11665408f, 0.43238226f, 0.01164616f, -0.40582868f, 0.24704628f,
    -0.10548738f, 0.02569744f, 0.13868432f, 0.03683016f, -0.13024524f, -0.02322901f, -0.22573370f, -0.23826402f, 0.14460617f, -0.10982870f, -0.08433633f, 0.06155200f, 0.00048261f, -0.16696975f, -0.12594108f, -0.15473868f,
    0.15057988f, -0.18848084f, 0.08823796f, -0.12838839f, 0.25860435f, -0.05023314f, -0.17358251f, -0.26347369f, -0.04207220f, -0.10228447f, -0.33879831f, 0.22918691f, 0.08352263f, -0.22653294f, 0.01704423f, 0.17175756f,
    -0.16875398f, -0.03024795f, -0.14726464f, 0.00004401f, 0.00015532f, -0.11235774f, 0.23418505f, -0.19569959f, 0.18290567f, -0.03036533f, 0.08159096f, 0.03947532f, -0.21077219f, 0.11616347f, -0.18925090f, 0.46017045f,
    -0.34774971f, 0.11221497f, 0.35864785f, 0.52700204f, 0.05602727f, -0.05987775f, 0.13583142f, 0.06774112f, 0.11875382f, -0.12929066f, -0.00971659f, -0.09854431f, 0.08891617f, -0.03502227f, -0.14276806f, 0.47488594f,
    -0.25059563f, -0.04456475f, 0.10097812f, -0.01204054f, -0.10675595f, -0.41022462f, -0.14095765f, -0.25750273f, -0.10903190f, 0.09585334f, 0.25647300f, 0.09307242f, 0.12060974f, 0.19274439f, 0.02594459f, 0.03635856f,
    0.05661537f, 0.18103985f, 0.06108297f, -0.07102342f, -0.11700755f, -0.53063953f, 0.13188078f, -0.29272056f, -0.01306547f, 0.09733291f, -0.11716569f, 0.14571001f, -0.20536327f, -0.01966671f, 0.28047997f, -0.25348017f,
    0.19354273f, 0.17834717f, 0.11781647f, -0.00839367f, 0.03641031f, -0.09244078f, -0.07859196f, 0.09608250f, -0.02953026f, 0.01667711f, -0.23996373f, 0.31689730f, -0.28828934f, 0.25963187f, 0.27612662f, 0.29532465f,
    -0.02376026f, 0.04258605f, -0.29345596f, -0.21103196f, 0.22665463f, -0.06986389f, 0.09217826f, 0.01258670f, 0.12224635f, 0.17201354f, -0.17532109f, 0.19709042f, -0.15669017f, -0.12047382f, -0.36758539f, 0.01281547f,
    -0.29050285f, 0.15558884f, -0.16936441f, 0.09113249f, -0.35945112f, -0.23178270f, 0.16522890f, 0.41703933f, -0.20414171f, -0.04294973f, -0.19214587f, 0.12135021f, 0.00524432f, -0.08129591f, 0.05785418f, -0.13254680f,
    0.02903333f, 0.09712974f, -0.17530963f, 0.15540388f, -0.09555609f, -0.21347009f, -0.05764756f, 0.05645963f, -0.19312382f, -0.07283789f, 0.03947992f, -0.02212361f, 0.22570956f, 0.23896129f, 0.43036038f, -0.07733503f,
    0.37946039f, 0.19737409f, 0.15538895f, -0.23234276f, 0.01908562f, -0.14043389f, 0.01331179f, -0.14615297f, 0.16082390f, 0.02172272f, 0.02692408f, -0.27937284f, -0.04587891f, 0.05933533f, -0.17498860f, 0.03793655f,
    0.17759921f, -0.23674564f, -0.12535080f, 0.33693591f, -0.02240674f, -0.07690643f, -0.01971602f, 0.06903624f, -0.22054751f, 0.03133706f, 0.06323353f, 0.04409076f, 0.15286957f, -0.09272292f, 0.05696573f, -0.10233804f,
    -0.20352878f, 0.24442753f, -0.17692274f, 0.21753176f, -0.20717354f, -0.12065746f, -0.23705600f, -0.15513904f, 0.40785083f, -0.21588986f, 0.15050897f, 0.17854072f, -0.16344689f, -0.39263478f, 0.23426476f, 0.02812852f,
    0.02220045f, 0.12928516f, -0.10332829f, 0.05712786f, -0.05193552f, -0.00974731f, 0.26413581f, 0.07850710f, 0.05903679f, -0.69832081f, 0.01165763f, 0.14176409f, -0.09161139f, -0.15771544f, 0.09693026f, 0.23258485f,
    -0.42785314f, -0.07037748f, 0.29533246f, -0.11607471f, 0.14930893f, 0.01768272f, 0.05052502f, 0.18155959f, 0.14262439f, 0.10791671f, -0.02257995f, -0.02437112f, -0.00072711f, -0.02794252f, -0.00712645f, 0.27032807f,
    -0.14249514f, -0.05682790f, -0.27790105f, -0.28751835f, -0.00754676f, 0.41973731f, 0.37728003f, -0.53684384f, 0.16826284f, 0.08308362f, -0.06924831f, -0.07419364f, -0.02631240f, -0.06712843f, 0.05168484f, -0.03326309f,
    0.10025126f, 0.08377656f, 0.25670838f, -0.03077104f, -0.02975114f, 0.32927778f, -0.37031305f, 0.16685167f, -0.13275710f, -0.44329736f, 0.00918129f, 0.33449686f, 0.44975233f, 0.36790109f, 0.12448477f, 0.21619159f,
    0.03662264f, -0.11610734f, -0.02310442f, 0.09740739f, -0.12378420f, 0.09473859f, 0.03018970f, 0.09961610f, 0.23640032f, 0.19544443f, 0.08765615f, 0.04533114f, -0.09567129f, -0.10832186f, -0.06874694f, 0.24737355f,
    -0.01036527f, 0.58602679f, -0.44386905f, -0.20781277f, 0.03454809f, 0.19209670f, -0.12840627f, -0.07964716f, 0.12510981f, 0.05974988f, -0.06582776f, -0.19597308f, -0.06804553f, 0.12869425f, -0.25113082f, -0.09115808f,
    0.06850179f, 0.80604362f, -0.26805803f, 0.20724583f, 0.18129803f, 0.24485606f, 0.08876898f, -0.04165915f, -0.08289491f, 0.09219241f, -0.34939584f, 0.15658376f, -0.06905792f, -0.13585290f, -0.01135063f, -0.03998300f,
    -0.00581300f, -0.12193918f, 0.08049825f, 0.14037770f, -0.08709564f, -0.21563897f, -0.01118711f, 0.07187058f, -0.30153918f, -0.08189036f, 0.15355122f, -0.29392344f, -0.04313382f, -0.11126466f, -0.38308445f, 0.07308076f,
    -0.31338054f, 0.00254879f, 0.15660167f, 0.13196331f, 0.09145597f, 0.04105197f, 0.01547917f, 0.09556295f, -0.09681846f, 0.07739025f, 0.04622209f, -0.06698895f, 0.03241179f, -0.57709140f, -0.33093470f, 0.01235347f,
    0.14919585f, 0.03980445f, -0.10928513f, -0.13116036f, -0.25451356f, 0.11027832f, -0.28900278f, 0.02980769f, 0.13216877f, 0.06652258f, 0.11908819f, -0.09548408f, -0.01885627f, -0.04954052f, -0.03023938f, 0.13844886f,
    -0.03894183f, -0.15089993f, -0.05989506f, 0.26101333f, -0.35945585f, 0.23365214f, -0.05187735f, -0.60143888f, 0.24177115f, 0.22948836f, 0.43377659f, 0.30481884f, -0.03859661f, -0.05440253f, 0.13738336f, -0.16303034f,
    0.01061114f, 0.00340086f, 0.03542778f, -0.00790548f, -0.11113323f, -0.03824141f, 0.43059987f, -0.05540458f, 0.18248394f, -0.49888879f, 0.41376728f, 0.10931507f, -0.15838128f, 0.18393274f, -0.03158256f, -0.24823166f,
    0.10524072f, -0.24942032f, -0.04818552f, -0.10276213f, -0.14793858f, 0.08053386f, 0.19005710f, 0.03345541f, -0.03535759f, -0.21584181f, 0.11193238f, 0.17958669f, 0.26540223f, 0.12646173f, 0.05463388f, 0.29407123f,
    0.18794501f, -0.07430235f, -0.22607008f, 0.15613404f, 0.01985977f, 0.31004345f, -0.31894225f, 0.08464424f, 0.01588476f, -0.03475421f, 0.10910351f, -0.17243829f, 0.14142734f, 0.07015081f, -0.09804390f, 0.08838633f,
    -0.04117625f, -0.03174749f, -0.04938820f, -0.37480652f, -0.05838660f, 0.46756589f, 0.04719476f, -0.15944615f, 0.04053607f, -0.15103622f, -0.09065720f, 0.20370868f, -0.24022542f, 0.20395023f, -0.08844454f, 0.59112751f,
    -0.05079623f, 0.12092020f, 0.15526567f, -0.04919705f, -0.04683542f, 0.12029931f, 0.09667195f, -0.01861547f, -0.25244632f, 0.04026311f, -0.19906674f, -0.08082243f, -0.58966357f, 0.20518778f, -0.27160504f, -0.43418267f,
    0.29628450f, 0.49561369f, 0.24081127f, 0.47801590f, -0.17135017f, -0.07887414f, -0.05297394f, 0.01452330f, -0.02823559f, 0.04694360f, -0.04568051f, -0.08691641f, -0.19191250f, 0.14931920f, 0.13949122f, -0.24306028f,
    0.14448972f, -0.25493127f, 0.15250199f, 0.09575979f, 0.10271883f, -0.00884605f, -0.16150266f, 0.05137600f, 0.04563738f, 0.13964623f, 0.21284017f, 0.23712975f, 0.12654927f, -0.17063950f, 0.01165661f, -0.02991976f,
    0.02469510f, -0.10940801f, 0.05800620f, 0.03598699f, -0.25530148f, -0.29192293f, -0.18008727f, 0.15360413f, 0.01117652f, -0.00008412f, 0.19407411f, -0.46286246f, 0.15211041f, -0.14513129f, 0.18706590f, 0.48457009f,
    -0.29710445f, 0.02002281f, -0.06463977f, 0.12993461f, -0.04906466f, 0.11540505f, 0.18046474f, -0.03541965f, -0.02486126f, 0.08278173f, -0.02222674f, 0.18824027f, -0.03755179f, 0.30126303f, -0.06315787f, 0.01932578f,
    0.15589832f, -0.05737857f, 0.18828784f, -0.02486518f, 0.50877839f, -0.33696255f, 0.15812537f, -0.23681083f, 0.10203227f, -0.20692579f, 0.10696106f, -0.02561439f, -0.04789432f, -0.18256091f, 0.11512916f, -0.01322700f,
    0.19548264f, 0.06845255f, 0.07925987f, -0.11535205f, 0.46566337f, -0.02680571f, -0.30124030f, 0.13241293f, -0.00050846f, 0.29713041f, -0.21492337f, 0.01688941f, 0.06065394f, -0.13104352f, 0.18309523f, 0.00835134f,
    -0.13935213f, 0.03776423f, 0.10225720f, 0.21841098f, -0.23104042f, 0.16941048f, 0.18032645f, 0.14756042f, 0.21154788f, -0.00511340f, 0.01131159f, 0.21293937f, -0.08355977f, -0.43214259f, 0.23717874f, 0.55693942f,
    0.59278929f, 0.35791692f, -0.08314011f, -0.08494379f, -0.07044136f, 0.06594241f, 0.02935174f, -0.07960293f, -0.00104686f, -0.12204713f, -0.19187537f, 0.21293233f, 0.05733334f, 0.03070568f, 0.10644721f, 0.02460493f,
    -0.11910000f, 0.29326746f, -0.09240188f, -0.12348323f, 0.22735333f, 0.50578547f, -0.06115883f, 0.04790066f, -0.24404795f, 0.16451977f, -0.02856847f, 0.03046909f, 0.15422302f, 0.07332671f, -0.06117206f, -0.05038548f,
    0.12716955f, -0.00503917f, 0.03988152f, -0.09368294f, -0.17059131f, -0.21959674f, -0.20187478f, 0.15939879f, 0.21631442f, -0.03336352f, -0.21795832f, -0.19936447f, 0.20999773f, -0.11986835f, 0.37999970f, -0.33435723f,
    -0.11200457f, -0.11087871f, 0.05098499f, 0.02128908f, -0.08577614f, 0.17327708f, -0.17426500f, 0.07687278f, -0.17820285f, -0.09817415f, -0.29215857f, 0.05051958f, -0.12133910f, 0.09273133f, -0.11948182f, 0.22175445f,
    -0.27475360f, -0.18702461f, -0.00734745f, 0.12405078f, 0.00386505f, 0.00523078f, 0.08134396f, 0.14120120f, 0.11396482f, 0.09728982f, -0.08560091f, -0.02937582f, 0.09249452f, 0.09773652f, -0.11255248f, 0.16190758f,
    -0.16059509f, -0.02199411f, -0.19667575f, -0.19755602f, -0.14372301f, -0.46906260f, 0.19278881f, 0.02124215f, 0.04472276f, 0.14018841f, -0.18195640f, 0.16790342f, -0.04347842f, 0.08213957f, 0.10986797f, -0.09267945f,
    0.11539665f, 0.00263970f, -0.11201888f, -0.04109072f, 0.10361703f, -0.05617891f, 0.03080583f, -0.20884801f, 0.19965562f, 0.17829216f, -0.26415515f, 0.05282673f, -0.20600866f, -0.11023430f, -0.18645769f, -0.20775482f,
    0.33368176f, -0.14341877f, 0.11977111f, -0.17480421f, -0.03345599f, -0.08337777f, -0.13178007f, 0.05208495f, 0.12473799f, -0.13053726f, -0.05573321f, 0.07270277f, -0.03015231f, -0.09998444f, 0.11425541f, -0.05179292f,
    0.03154106f, 0.22534445f, -0.38674676f, -0.34620440f, -0.29920951f, -0.06089123f, 0.09288224f, -0.26384681f, 0.04923615f, 0.01354512f, -0.12121128f, 0.14983329f, -0.08557206f, -0.09371644f, 0.17737870f, -0.05410350f,
    0.06348520f, -0.06026057f, -0.00589909f, -0.06667762f, -0.02792738f, 0.04817800f, -0.09612370f, -0.44944820f, 0.51166552f, 0.37875363f, -0.00563872f, -0.01382476f, -0.31673974f, -0.05683061f, 0.02363659f, 0.01054414f,
    -0.07749438f, 0.18073931f, 0.09397671f, -0.07421771f, 0.03753371f, -0.06985537f, 0.25155488f, 0.28489724f, -0.21631935f, -0.16147453f, -0.09216085f, 0.18170123f, -0.25230736f, 0.00963297f, -0.07839108f, 0.36657885f,
    -0.33415213f, -0.09248973f, 0.06006773f, 0.19783045f, 0.01158885f, -0.02448134f, 0.06507038f, 0.15942025f, -0.09263109f, -0.10259976f, 0.06667167f, -0.08728661f, 0.12034283f, 0.13053137f, -0.15327013f, 0.20818138f,
    -0.01615716f, -0.24372666f, -0.24933483f, 0.17919174f, -0.36204192f, -0.04208237f, -0.19149180f, 0.27861813f, 0.13005996f, -0.03177923f, -0.03316373f, -0.00964208f, 0.19895808f, 0.20770971f, 0.02845742f, -0.01309282f,
    0.17524439f, -0.11366612f, 0.02496790f, -0.09084523f, 0.11103319f, -0.36546719f, -0.09409916f, -0.18196045f, 0.15414639f, 0.15612023f, 0.33759853f, -0.36711055f, 0.29625222f, -0.43030429f, -0.20067669f, -0.15923059f,
    -0.03076763f, -0.16992371f, -0.18344298f, -0.03202836f, 0.05296440f, 0.19230863f, 0.13728240f, -0.03908513f, -0.03121915f, -0.02421357f, 0.22711320f, -0.07037196f, 0.01245186f, -0.20045540f, -0.21778974f, 0.02096973f,
    -0.12630549f, 0.06190621f, -0.22462600f, 0.08385640f, -0.05396644f, -0.05319295f, 0.12682566f, 0.11737481f, 0.14022084f, -0.15638986f, -0.20233946f, 0.01088213f, 0.00978534f, 0.09349427f, 0.18288232f, -0.00779379f,
    -0.17351189f, 0.04234507f, -0.06180256f, 0.24148574f, -0.10787697f, 0.05517736f, -0.39852962f, -0.20057455f, 0.14450970f, 0.03948372f, 0.14678536f, -0.25599888f, 0.21116385f, 0.10889260f, 0.10946906f, 0.05363604f,
    0.00356938f, -0.06353906f, -0.06648178f, -0.11524794f, 0.02691880f, 0.07177513f, -0.00396615f, -0.68938583f, 0.31366509f, -0.12630960f, -0.33854097f, -0.00621880f, -0.10395156f, 0.04784105f, -0.21955532f, 0.15839404f,
    -0.14733557f, 0.02577577f, 0.10088751f, -0.16504429f, 0.12034412f, 0.13929306f, -0.13060951f, 0.01097347f, 0.08908743f, 0.10036828f, 0.11716966f, -0.17169286f, -0.18234190f, -0.38279161f, -0.06309557f, -0.05075910f,
    -0.10764176f, 0.38503751f, -0.19940934f, -0.19724509f, -0.27038300f, -0.29288846f, 0.30896607f, -0.02502110f, -0.02662723f, -0.07965837f, -0.23636194f, -0.06642624f, 0.11060704f, 0.20060381f, 0.08205660f, 0.02969912f,
    -0.22815213f, -0.10975657f, 0.15559466f, 0.24045424f, 0.13442633f, -0.14929256f, 0.14971390f, -0.04048480f, -0.06235401f, 0.00695226f, -0.14232135f, -0.12117796f, -0.02720519f, 0.15978934f, 0.07912735f, -0.04383020f,
    -0.13221599f, -0.10714100f, -0.19154708f, 0.08836577f, -0.16603729f, 0.02141218f, -0.11792269f, -0.14015687f, 0.14710627f, 0.16473731f, -0.02711417f, 0.22110651f, -0.11164568f, -0.07262463f, -0.01038274f, 0.13067570f,
    0.23780441f, 0.02186029f, -0.25155705f, -0.25902858f, 0.22744866f, -0.22494239f, -0.13295959f, 0.06581900f, -0.17642744f, -0.05461255f, 0.08205223f, 0.13650192f, 0.10998040f, -0.00903053f, 0.14911866f, 0.18925579f,
    -0.09342924f, -0.00491397f, -0.18020508f, -0.10388896f, 0.26056248f, 0.27191949f, 0.28122672f, -0.56011176f, 0.02676699f, 0.13950382f, -0.02750167f, -0.05376011f, -0.08883255f, 0.15417141f, -0.10276199f, -0.15184577f,
    0.09289898f, -0.11660916f, 0.23053357f, 0.11095086f, -0.14230849f, 0.00054980f, 0.40272468f, 0.14887808f, -0.02338633f, 0.00417369f, -0.08917465f, 0.17909855f, -0.33007014f, -0.12291130f, 0.00609499f, 0.24110653f,
    0.04192721f, 0.04069502f, -0.09584113f, 0.07537418f, -0.18825483f, 0.04170219f, 0.00924118f, 0.08276848f, 0.10425776f, 0.08377405f, -0.15789957f, 0.00278289f, -0.44786340f, 0.09623563f, 0.11280429f, -0.18848015f,
    0.01028398f, -0.12951832f, 0.14717618f, -0.21289213f, 0.19454286f, 0.24375740f, 0.14004390f, 0.15657797f, -0.00664589f, 0.05505038f, -0.13149510f, -0.00203311f, -0.01301446f, 0.07492139f, -0.18602724f, 0.11845034f,
    0.06129016f, -0.16381982f, 0.20472147f, -0.06410454f, 0.04150975f, 0.07221641f, 0.16953944f, 0.23479548f, -0.43947509f, -0.58438212f, 0.43793571f, 0.13173831f, 0.10736667f, -0.07413017f, -0.12390447f, 0.01847579f,
    -0.14085791f, 0.02154467f, -0.05327654f, -0.04691349f, 0.12213470f, 0.06545093f, -0.27607489f, 0.27097300f, 0.07233229f, -0.06843679f, 0.16084833f, -0.06407935f, -0.03479081f, -0.12338728f, -0.04875832f, -0.04049344f,
    -0.07078387f, -0.11217011f, -0.01456580f, 0.15193915f, 0.02002907f, 0.07217310f, 0.12621279f, 0.18963002f, -0.05088712f, -0.12054938f, 0.03143171f, 0.15356012f, -0.34561390f, -0.27365410f, 0.22288208f, 0.23407038f,
    -0.19900863f, 0.09829396f, -0.17300630f, 0.10036235f, -0.29439130f, 0.00936084f, 0.43428326f, -0.09039879f, 0.02218285f, -0.17857836f, 0.06714227f, -0.12892520f, -0.08528733f, -0.14302030f, 0.08238433f, 0.11700066f,
    -0.13930634f, -0.10786341f, 0.20316178f, 0.84737670f, -0.09023149f, 0.06173404f, 0.02946740f, 0.06983478f, 0.13890344f, -0.06696375f, 0.13406965f, 0.17003036f, -0.09221322f, -0.05284117f, -0.06190952f, 0.09738864f,
    -0.17372403f, 0.22408834f, 0.21213882f, -0.12886709f, -0.17320231f, -0.01740240f, -0.03462004f, 0.11533292f, 0.05105246f, 0.44488084f, 0.25106993f, -0.02933815f, -0.08706646f, -0.19650783f, 0.10513416f, -0.18448243f,
    -0.01758651f, 0.00314801f, -0.05308982f, -0.24657020f, 0.00316139f, 0.11882343f, 0.08702684f, -0.13098951f, -0.14851497f, -0.06248704f, -0.14609060f, 0.06283826f, -0.01929251f, -0.28179219f, -0.00446920f, 0.60426730f,
    -0.20721348f, -0.07167061f, 0.00491191f, 0.03931138f, 0.25136155f, 0.00471106f, 0.05669376f, -0.23351629f, 0.16011882f, -0.20259354f, -0.16103686f, 0.18751734f, -0.04411291f, 0.14604586f, -0.10053740f, 0.15634711f,
    0.15703899f, 0.04399216f, 0.39091572f, -0.03067107f, -0.09797268f, 0.02188821f, 0.19901711f, -0.07672375f, 0.26075169f, 0.14860833f, -0.36209640f, 0.04544476f, -0.34427261f, -0.46677971f, 0.13748737f, -0.00045054f,
    0.08073457f, -0.07943539f, -0.12966821f, -0.15634979f, 0.20181251f, -0.16622756f, 0.08772611f, 0.11290091f, 0.04698167f, -0.02502728f, -0.07729097f, -0.09924639f, 0.07306319f, -0.33871856f, -0.11022035f, -0.37006122f,
    0.13660938f, 0.40995827f, -0.00763162f, 0.53947979f, -0.07272857f, -0.02194218f, -0.14322580f, 0.09145737f, 0.08996471f, 0.04058139f, -0.10761243f, 0.01471125f, -0.04633375f, -0.01681866f, 0.12518695f, -0.05882302f,
    -0.21375516f, 0.55915135f, -0.21003629f, 0.16273171f, 0.10632557f, -0.31892362f, 0.13439772f, 0.44838247f, 0.23482080f, 0.33911434f, 0.30223045f, 0.06994779f, -0.12242740f, 0.12752023f, 0.10594887f, 0.02689755f,
    -0.10808332f, 0.06702858f, 0.09105621f, -0.00808406f, 0.08692551f, 0.12850465f, -0.29137456f, -0.03339779f, -0.40720561f, -0.00246079f, -0.00794351f, -0.06349828f, 0.17553890f, 0.48351881f, -0.47042903f, 0.19559015f,
    -0.23609367f, -0.03445268f, 0.04678211f, 0.11216830f, -0.01091112f, 0.06962488f, 0.06801607f, 0.17189433f, 0.01063378f, -0.02912218f, -0.00300389f, -0.11694444f, -0.15122724f, -0.20494236f, -0.54136848f, -0.16052538f,
    -0.19709851f, 0.16675080f, -0.28476742f, -0.03192284f, 0.04735433f, 0.22325143f, 0.25569770f, -0.29315299f, 0.21306363f, -0.21583119f, 0.01287834f, 0.18120326f, 0.11673472f, -0.03584974f, -0.10509869f, 0.05673697f,
    0.13921958f, -0.02276562f, -0.03089520f, -0.13171068f, 0.26390317f, -0.05378303f, 0.09236622f, 0.29599878f, -0.34101465f, 0.13371083f, -0.53409356f, -0.50880665f, 0.37201291f, -0.07466756f, -0.02563793f, -0.26992527f,
    -0.10178929f, -0.06901013f, -0.06171872f, -0.10054785f, 0.05280507f, 0.11386894f, 0.14403892f, -0.07161608f, -0.01877363f, 0.79245764f, 0.03616921f, -0.15447737f, 0.15237240f, 0.15266052f, -0.31484812f, 0.10348188f,
    -0.14004266f, -0.37500086f, 0.35717997f, -0.03251355f, 0.15132028f, -0.10356703f, -0.16492674f, -0.04279319f, -0.05162063f, -0.04666506f, -0.01885082f, 0.12620981f, -0.17678137f, 0.21922983f, 0.03492638f, 0.54338539f,
    0.09686435f, -0.22252145f, 0.14707620f, -0.04171063f, -0.24213611f, 0.17884365f, 0.16865923f, -0.04374102f, 0.05632747f, -0.00432228f, 0.05503095f, 0.16750520f, 0.01964066f, -0.04872207f, 0.11451582f, -0.02397634f,
    -0.06511012f, -0.03959601f, 0.10707827f, 0.21089952f, -0.08388257f, -0.42977825f, 0.08227703f, -0.12431596f, 0.10614321f, -0.10760082f, -0.12393691f, -0.00812786f, -0.34659952f, 0.21927413f, 0.15681379f, 0.19430950f,
    -0.18049476f, 0.05521868f, 0.04034965f, 0.08348161f, -0.09542841f, -0.04075921f, -0.13352390f, 0.09140489f, 0.10390925f, 0.00573220f, 0.14992777f, 0.55780923f, -0.07186934f, 0.11250612f, 0.18729612f, -0.12640181f,
    -0.27107993f, -0.12325273f, 0.37794369f, 0.35611725f, -0.19650471f, -0.15410207f, -0.13922188f, 0.11628086f, 0.14836253f, 0.03947744f, -0.02892505f, -0.03266102f, 0.04019465f, 0.04176403f, -0.15580200f, 0.13762222f,
    0.27086174f, -0.66814858f, -0.20918506f, 0.04929833f, -0.26928961f, -0.15494479f, 0.32579967f, 0.33264816f, 0.06660810f, -0.30463451f, -0.06962200f, 0.21386355f, -0.11780663f, -0.07043090f, 0.08178909f, 0.06034304f,
    0.06874716f, -0.15532751f, 0.09351607f, -0.06456845f, 0.06424481f, 0.13451654f, -0.18265592f, 0.46768519f, -0.20449993f, 0.32976279f, 0.17487444f, 0.16100052f, -0.21444833f, -0.07413883f, -0.21589816f, 0.09014401f,
    0.09220606f, -0.28197986f, -0.07679751f, 0.06585325f, 0.04749450f, -0.01219641f, 0.11864216f, -0.03645077f, 0.04212378f, 0.06986984f, -0.11298698f, 0.21877767f, 0.22684804f, 0.21115644f, -0.24496983f, 0.14581838f,
    -0.18904617f, 0.00896983f, 0.19165063f, 0.15707168f, -0.07892571f, -0.09255549f, -0.21310556f, 0.02862621f, 0.07682722f, -0.10651945f, 0.02137621f, 0.04278024f, 0.09799595f, 0.13929096f, 0.04764177f, 0.07385808f,
    0.20915787f, -0.24659601f, 0.03701139f, -0.38478902f, 0.06609905f, 0.05199001f, 0.01482648f, 0.04571858f, -0.29893175f, 0.21533041f, 0.25052989f, 0.01561905f, 0.27297208f, -0.13467067f, -0.11769424f, 0.07166198f,
    0.13340391f, -0.13814120f, 0.04549294f, -0.01969418f, 0.22827564f, -0.13347538f, -0.13364324f, -0.08086674f, -0.14827803f, -0.12799589f, -0.43601099f, 0.29553786f, -0.05804487f, 0.12934917f, -0.34796470f, 0.00465367f,
    -0.35476387f, 0.34394839f, 0.32932380f, 0.10214010f, -0.06120960f, 0.12558381f, -0.15951414f, 0.15826653f, 0.00309136f, -0.17112175f, -0.14015703f, -0.12498610f, -0.12469225f, -0.06357855f, -0.22329077f, 0.23157032f,
    0.00062722f, 0.01070557f, -0.02351841f, 0.04871233f, 0.08060411f, 0.26235506f, 0.10738628f, -0.13380368f, 0.38662148f, -0.16281854f, -0.10100327f, 0.03699485f, 0.00104655f, -0.11589391f, 0.05769258f, -0.04364894f,
    -0.10382167f, -0.06494639f, -0.01904151f, -0.06572301f, -0.06781720f, 0.46515909f, -0.12961443f, -0.00164406f, -0.11776006f, 0.17087898f, -0.19267397f, -0.15883456f, -0.24732727f, -0.50467187f, 0.30368850f, -0.09035639f,
    -0.01505385f, -0.05463169f, 0.08754304f, 0.08895733f, -0.11554033f, -0.06584443f, 0.15307643f, -0.03080956f, -0.28022569f, 0.06517934f, -0.12254551f, 0.10000224f, -0.02533768f, -0.21077558f, 0.09474774f, 0.26543197f,
    0.10353737f, 0.04798323f, 0.01497755f, -0.49358779f, 0.17763075f, 0.15425429f, 0.10597846f, -0.04108195f, 0.10481822f, -0.14840634f, 0.02471453f, -0.10314288f, -0.16377637f, -0.10268052f, -0.18870145f, 0.07265466f,
    -0.07273740f, 0.32734123f, 0.17148307f, 0.11622272f, 0.12929212f, 0.06880873f, 0.10835558f, -0.09703957f, -0.02381341f, 0.12924509f, 0.24112113f, -0.18481997f, 0.08129916f, -0.02751304f, 0.15943600f, 0.15156429f,
    0.14018108f, 0.09606644f, 0.02879361f, 0.17369460f, -0.07616004f, -0.01727372f, -0.06135066f, -0.21397261f, -0.20858172f, 0.16037473f, 0.02123803f, -0.24758874f, -0.05190216f, 0.19174483f, -0.25819558f, 0.23041107f,
    -0.40085524f, 0.16406976f, -0.12909012f, -0.20034561f, 0.02112270f, 0.16832052f, 0.19416291f, 0.10470575f, 0.13393514f, -0.05815920f, 0.07530904f, 0.10896841f, -0.32130057f, -0.37053534f, -0.08284219f, -0.02413625f,
    -0.04612978f, 0.04830260f, 0.06570268f, -0.08297966f, -0.37183648f, -0.43916786f, 0.22982374f, -0.44497776f, 0.03593193f, -0.06591034f, 0.03860258f, 0.08799226f, -0.05752965f, -0.02345454f, 0.13348505f, -0.10516886f,
    0.03865079f, 0.11459648f, -0.18182701f, 0.50336760f, 0.30994186f, -0.22681928f, 0.31994694f, -0.13049874f, 0.11201419f, -0.36017323f, 0.08322618f, 0.17882213f, -0.22559711f, -0.18307306f, 0.04323818f, -0.04834902f,
    0.05580867f, 0.09732177f, -0.04874819f, 0.17938343f, 0.06534061f, -0.07862550f, -0.14405693f, 0.20891997f, -0.22949995f, -0.09183012f, 0.11938790f, 0.03003972f, -0.16464211f, 0.26128733f, 0.05501426f, 0.00994960f,
    -0.44408807f, -0.34600687f, -0.10781636f, -0.32061476f, 0.22426513f, -0.13073121f, 0.08790658f, 0.14883259f, 0.04904492f, -0.19598137f, 0.02664767f, -0.03961571f, 0.06609247f, -0.06426456f, -0.04905394f, 0.45824954f,
    0.27054465f, 0.09554868f, -0.03603591f, 0.09822027f, 0.09592546f, -0.11145633f, 0.38168761f, -0.00644163f, -0.04849357f, 0.06373300f, -0.10726006f, -0.07636190f, 0.12316672f, -0.05078083f, 0.04464040f, -0.01893524f,
    -0.01610507f, 0.19495091f, -0.02436375f, -0.16984807f, 0.27186659f, -0.26804253f, 0.14117938f, 0.06317033f, -0.20174542f, -0.01461111f, -0.11949059f, 0.00076881f, -0.12170305f, 0.24942824f, 0.13995543f, -0.16281947f,
    0.06781708f, 0.01890603f, 0.13219373f, 0.08760776f, -0.15913084f, 0.18352498f, -0.03248585f, -0.02368908f, -0.00938723f, 0.20145337f, 0.03194662f, -0.37310740f, -0.01314796f, 0.24138196f, -0.06689613f, 0.15961958f,
    -0.40260032f, -0.03651362f, -0.34382555f, -0.22783411f, 0.38693550f, 0.27172261f, 0.08626541f, 0.03625646f, 0.06686559f, 0.10392799f, -0.21909513f, 0.14505632f, -0.15708812f, 0.11690380f, -0.26819342f, -0.02824535f,
    -0.08688252f, 0.41678986f, -0.01920752f, -0.13821344f, 0.07686431f, 0.32603848f, -0.21580566f, -0.38314095f, -0.25227785f, -0.40949783f, -0.08017849f, -0.17413075f, -0.00428499f, -0.05042027f, 0.09856892f, 0.01981106f,
    -0.11706980f, -0.04872636f, -0.05141732f, -0.07288975f, -0.26465386f, 0.05720366f, -0.19447009f, -0.04812882f, 0.39278522f, -0.21291442f, -0.10050426f, -0.03077735f, -0.00342398f, -0.08897927f, -0.23182629f, 0.12313478f,
    0.08787154f, -0.31207541f, 0.01842023f, -0.15594490f, 0.00820342f, 0.13417584f, -0.03952183f, -0.14023775f, 0.14810312f, -0.14498548f, -0.03081933f, 0.11901920f, 0.20258094f, 0.30180782f, 0.27667603f, 0.11306621f,
    -0.25788289f, -0.50980926f, -0.00339936f, 0.33870167f, 0.05260015f, 0.26427346f, 0.19462183f, 0.32024249f, -0.08049139f, 0.19955751f, -0.16231997f, 0.01894118f, 0.02989432f, 0.05411102f, 0.10397490f, -0.12291111f,
    0.20785511f, -0.28951505f, -0.16749294f, -0.05506325f, -0.26853150f, -0.12832861f, -0.28524631f, 0.06997324f, 0.22263610f, 0.13238703f, -0.52185732f, -0.35439271f, -0.28382027f, -0.14928216f, -0.24178015f, 0.13423398f,
    -0.00079689f, -0.04834743f, -0.13248335f, 0.10625643f, -0.07192364f, -0.11270779f, 0.31940538f, 0.20089890f, -0.25214142f, 0.52195454f, -0.11419038f, 0.09934621f, 0.14007135f, -0.18071209f, 0.22655584f, 0.20900042f,
    -0.06107387f, -0.12408280f, -0.22028643f, 0.24182716f, -0.15534189f, -0.14968178f, -0.12434408f, -0.19245966f, -0.08281913f, 0.22722006f, 0.08654935f, 0.16357780f, -0.08617433f, -0.12052036f, -0.05160228f, 0.32671943f,
    -0.03830813f, -0.05077291f, -0.26497912f, -0.43239835f, 0.49217281f, 0.19310351f, 0.15633766f, 0.02731287f, -0.06623538f, -0.15895097f, -0.05039038f, -0.12410873f, -0.04712311f, -0.13810411f, -0.07444704f, 0.03232590f,
    -0.05522790f, -0.12845074f, 0.39876181f, 0.09075008f, -0.11656652f, -0.09385794f, 0.05576535f, -0.02663063f, -0.22511213f, -0.02031081f, 0.20706278f, 0.11661243f, 0.25054586f, -0.09979832f, 0.20135322f, -0.04967700f,
    -0.04972103f, -0.20316166f, 0.00184633f, 0.08362582f, -0.15382363f, -0.01931409f, 0.11414952f, -0.03966329f, 0.04769811f, 0.11777986f, -0.07319612f, -0.22920194f, -0.17888266f, 0.18703489f, -0.11630128f, -0.14400990f,
    0.03342460f, 0.52822685f, -0.44997549f, -0.46386406f, -0.08494185f, 0.03152447f, -0.07688451f, 0.18483336f, -0.12245934f, -0.04962744f, -0.17410052f, -0.07195809f, -0.05568666f, -0.09276497f, 0.06423861f, 0.07069080f,
    -0.07670809f, 0.38503432f, -0.05474872f, 0.24298771f, -0.00318281f, 0.18748701f, 0.06117015f, 0.09968819f, 0.21009584f, -0.14390309f, -0.04992258f, 0.01852586f, 0.01710635f, 0.11720962f, -0.00996329f, 0.05199729f,
    0.13853782f, 0.01398734f, 0.16629998f, -0.07124412f, -0.01849891f, 0.01785317f, 0.06322358f, -0.29522431f, 0.05516440f, 0.14891653f, 0.08074311f, 0.23173165f, -0.30012202f, -0.31583789f, -0.09114082f, -0.06603127f,
    -0.13845176f, -0.07649880f, 0.07655501f, -0.18563622f, 0.17810442f, 0.08360010f, 0.02900234f, -0.05730433f, 0.22846055f, -0.12672681f, 0.09554191f, -0.07066075f, 0.07454804f, -0.67239696f, 0.11945163f, -0.20265442f,
    0.00547629f, 0.03155474f, -0.23147166f, -0.44497284f, 0.12950803f, -0.00696389f, 0.06843530f, -0.25545245f, 0.10299478f, -0.04077900f, -0.07769524f, -0.00809141f, -0.09365638f, 0.01551228f, 0.15680975f, 0.04073025f,
    -0.11139899f, -0.05409280f, -0.10775983f, -0.43806824f, 0.22011727f, 0.13779436f, 0.25141799f, 0.04725111f, -0.14753960f, -0.18255238f, -0.06994225f, 0.53486329f, -0.16965999f, -0.04374623f, -0.15787376f, -0.09433766f,
    0.02693967f, -0.13070679f, 0.03689241f, -0.14939976f, -0.04766690f, 0.13561419f, 0.12049802f, -0.06717931f, -0.07445566f, 0.02398886f, -0.05041130f, -0.13263555f, 0.20776841f, -0.07467082f, 0.06343693f, 0.24730393f,
    -0.15095995f, 0.06425954f, 0.24192937f, 0.03005086f, -0.13991226f, -0.11004805f, 0.06778079f, 0.19153634f, -0.05333436f, -0.12792584f, -0.18490963f, 0.13186540f, 0.22816198f, 0.03975059f, -0.10509277f, 0.65779066f,
    0.13175793f, 0.05951136f, 0.16595602f, -0.32696298f, 0.14909460f, 0.12743139f, -0.27206415f, 0.20000137f, 0.11646535f, 0.17159449f, 0.02699743f, -0.06294906f, -0.11382920f, 0.10563058f, -0.00171738f, 0.18848017f,
    0.14408177f, -0.04975911f, -0.08786449f, 0.21984762f, 0.13104299f, 0.01120002f, -0.30331734f, -0.00570440f, 0.18639626f, -0.20765029f, 0.08371606f, 0.19914970f, 0.09658950f, -0.09570115f, -0.06711514f, 0.36671957f,
    0.06223715f, 0.11070780f, 0.00363246f, 0.04199321f, 0.18440820f, 0.07103544f, -0.09813099f, 0.03338350f, -0.08312911f, 0.03366689f, -0.07751479f, 0.02094771f, 0.02619217f, -0.08839856f, 0.17920479f, 0.59830028f,
    -0.37027559f, -0.12829514f, -0.41003266f, -0.40220433f, 0.13287644f, 0.14998880f, 0.00661733f, -0.03555026f, 0.22364698f, -0.06803545f, -0.00345194f, 0.01204847f, 0.19856697f, -0.01185864f, -0.04369907f, 0.05055198f,
    0.10240877f, -0.19363280f, -0.18357843f, 0.07780585f, -0.05704596f, -0.32969198f, 0.23056138f, 0.04613224f, -0.10239763f, 0.29361904f, -0.29676750f, -0.08887172f, 0.04362164f, 0.13050309f, -0.04645133f, 0.16419820f,
    0.17788233f, 0.14129256f, -0.16732286f, -0.06802533f, 0.11132184f, 0.19148661f, -0.10545395f, -0.30219996f, 0.32964662f, -0.06286082f, -0.12992790f, 0.29189953f, -0.06873374f, 0.18533966f, -0.13420899f, -0.40407747f,
    0.30410412f, 0.00977125f, 0.09494174f, -0.17376392f, 0.10564609f, -0.07156313f, -0.01183257f, -0.15445517f, -0.00525426f, -0.15905601f, -0.29186487f, -0.00482919f, 0.01590657f, 0.11744368f, 0.29371625f, 0.09909601f,
    -0.04767899f, 0.17496824f, 0.19048138f, 0.28426805f, -0.57901204f, -0.03931263f, 0.02913244f, 0.04518422f, 0.00862671f, -0.07133801f, -0.00789201f, -0.01618139f, 0.05390484f, -0.05220748f, -0.00920284f, -0.02296890f,
    -0.04870299f, -0.10969815f, -0.19603841f, 0.58889353f, -0.34716925f, 0.13690415f, 0.01709335f, -0.45938113f, 0.13352545f, 0.34589383f, -0.34997460f, 0.11730005f, 0.22830191f, 0.54035699f, 0.03973980f, -0.04804990f,
    -0.07958242f, 0.03098568f, -0.02801249f, -0.01571434f, 0.09408733f, -0.12537444f, 0.03254087f, -0.08918025f, -0.03104044f, 0.41958708f, -0.22874744f, -0.02127413f, -0.28405660f, -0.49979013f, -0.06677705f, 0.57149011f,
    -0.41889688f, 0.43109718f, -0.20420730f, 0.26649010f, 0.22705251f, 0.12097619f, -0.00705504f, 0.08718258f, -0.03957566f, 0.15893081f, -0.16474986f, 0.16526513f, -0.22525479f, -0.24158442f, 0.04831381f, 0.07226790f,
    -0.18820304f, -0.07974010f, -0.03576457f, 0.07014880f, -0.25784865f, 0.36585927f, 0.33776468f, 0.35233369f, 0.12469707f, -0.06366227f, -0.10517513f, -0.07583755f, -0.02686961f, -0.10366169f, 0.10571771f, 0.06458540f,
    -0.07800566f, 0.05395234f, 0.20415308f, -0.04354094f, 0.29997179f, 0.66744798f, -0.15156494f, -0.22440457f, 0.21226621f, 0.00589033f, 0.28892836f, -0.17196849f, 0.02537968f, -0.09927896f, -0.03944068f, 0.16542046f,
    -0.17535803f, -0.10116971f, -0.02937973f, 0.17580050f, 0.13034314f, 0.16838937f, 0.10433434f, 0.15662105f, 0.03811876f, 0.00844289f, -0.10239108f, 0.22260405f, 0.19792189f, 0.03522189f, 0.06539714f, 0.01920471f,
    0.05966819f, 0.13114409f, 0.12987438f, 0.12712707f, -0.21277024f, 0.17665693f, 0.05208506f, 0.12694038f, 0.07411027f, -0.00559997f, -0.13097197f, -0.17330472f, 0.05250156f, 0.13853011f, -0.02074775f, -0.13283236f,
    0.05370500f, -0.24308802f, -0.25868347f, -0.11779166f, -0.13668671f, -0.05648346f, -0.21367027f, 0.21461965f, 0.02901768f, -0.12614773f, -0.11817338f, 0.28434435f, -0.05712460f, 0.05804377f, 0.11508451f, -0.03233824f,
    0.08493025f, 0.14718626f, 0.07620914f, -0.01259489f, -0.22790609f, -0.20229033f, -0.02079856f, -0.09354923f, -0.15096995f, -0.01064588f, 0.12842883f, -0.21735002f, 0.13030931f, -0.25822532f, 0.26376852f, 0.03824624f,
    0.21174231f, -0.26040244f, -0.08677173f, -0.23515983f, -0.08888283f, -0.12542312f, 0.12566178f, -0.11567018f, -0.03708281f, -0.12148024f, -0.03734000f, 0.25027063f, 0.12235612f, -0.18492492f, 0.31132537f, 0.18362392f,
    0.18658338f, -0.41867667f, 0.04718783f, -0.30411214f, 0.35512581f, 0.28661796f, -0.08699822f, -0.30458003f, 0.07226298f, 0.20952334f, -0.10738394f, -0.09132067f, -0.11172198f, 0.12783334f, 0.06850081f, 0.18418449f,
    0.14286253f, -0.13124251f, 0.22379078f, -0.06421488f, 0.15096708f, -0.10101758f, 0.13069019f, -0.47770831f, 0.13863933f, 0.29760882f, 0.50672573f, 0.34429172f, 0.21306378f, 0.46020964f, -0.08284256f, -0.02127180f,
    0.03544993f, -0.01693708f, -0.03757841f, 0.07728739f, 0.04736874f, -0.08279545f, -0.16057664f, 0.19719753f, 0.10612043f, -0.61896414f, -0.20267972f, 0.33224550f, 0.08142679f, -0.26127905f, -0.02038573f, 0.19094394f,
    0.48886964f, -0.18419547f, -0.10332462f, 0.00842730f, -0.15344840f, 0.11258610f, -0.18259817f, -0.17107619f, -0.16887382f, 0.19296741f, 0.17983469f, -0.11380778f, 0.24728881f, -0.08132613f, -0.20669456f, 0.45328978f,
    0.17033319f, 0.13342059f, 0.05842082f, 0.42101732f, -0.38268089f, 0.05775017f, -0.17893149f, -0.37514862f, 0.32692680f, -0.17705509f, 0.11494255f, 0.00437378f, 0.09161006f, 0.01150668f, 0.02088270f, 0.19325137f,
    -0.13893916f, -0.19757728f, 0.04050450f, 0.01435688f, 0.03683414f, 0.14331436f, -0.06134307f, 0.18393177f, 0.04444600f, -0.26103479f, 0.27265310f, 0.24364038f, 0.44179866f, 0.26091796f, -0.22422628f, 0.18920043f,
    0.05257684f, 0.17790009f, 0.02485274f, 0.02693409f, -0.01675005f, 0.02397016f, -0.16715610f, 0.10750266f, 0.25583923f, -0.03557007f, -0.14193606f, -0.17969553f, -0.48164913f, 0.24511980f, -0.28571442f, -0.49650350f,
    -0.20417064f, 0.50043863f, -0.24171917f, 0.69856912f, 0.19803616f, 0.52867317f, 0.00541791f, 0.09895359f, 0.19839726f, -0.02853469f, -0.16684335f, 0.11681096f, 0.16166995f, -0.00082063f, -0.33225873f, -0.26852557f,
    -0.21967623f, -0.19468027f, -0.50189877f, 0.12815455f, -0.15726542f, 0.12756604f, -0.20868956f, 0.13463800f, -0.12083319f, 0.09500732f, 0.10880321f, -0.33238250f, 0.17465718f, 0.02109190f, 0.01892290f, -0.15948230f,
    -0.03467274f, 0.06224594f, 0.04895307f, -0.02948688f, 0.06366339f, 0.12403464f, 0.21967673f, 0.04855312f, -0.13367365f, -0.13145533f, -0.19937445f, -0.11575209f, -0.10373341f, 0.00332252f, -0.46272612f, 0.01879667f,
    0.24893476f, 0.07556029f, 0.14877190f, -0.06453720f, 0.13449056f, 0.09070122f, -0.04449436f, 0.19530754f, -0.14796634f, -0.11554229f, 0.15134288f, -0.05793968f, -0.06856247f, 0.15194497f, -0.14968480f, 0.17173027f,
    0.32906476f, -0.04345939f, 0.01508276f, 0.16652319f, 0.03112636f, 0.12683739f, -0.15420163f, 0.34180549f, 0.06228490f, 0.03894828f, 0.04834302f, 0.00744905f, 0.06206213f, 0.17012501f, -0.13766202f, -0.01911986f,
    -0.06205508f, -0.26769370f, -0.23156337f, 0.03568959f, -0.12396400f, -0.09289438f, 0.12614007f, 0.12851137f, -0.34764042f, 0.08625682f, -0.11842813f, -0.10220584f, -0.03958170f, -0.23619436f, 0.17872584f, 0.10779262f,
    0.08539041f, 0.14004703f, 0.10131031f, 0.22327374f, 0.09056840f, -0.16923344f, 0.09811282f, 0.11424571f, -0.14205834f, -0.31820968f, 0.27737916f, 0.02876679f, 0.09460691f, -0.07644874f, 0.28073671f, -0.10810664f,
    0.23099107f, -0.11501770f, 0.04681946f, 0.04889349f, 0.08308440f, -0.06687935f, 0.09995255f, 0.00181949f, -0.05101448f, -0.15729187f, 0.03325909f, -0.05940599f, 0.15517347f, 0.25065449f, -0.14853036f, -0.25234085f,
    0.38603416f, 0.00510570f, 0.08283068f, 0.18095371f, -0.13395391f, 0.06040236f, 0.01532095f, 0.12400978f, 0.44673446f, 0.05623986f, 0.12944061f, -0.18834203f, 0.01874990f, 0.09215273f, 0.08084071f, -0.13077556f,
    0.02941883f, -0.08455725f, -0.26050961f, 0.13712651f, 0.06273972f, 0.36781931f, 0.16136400f, -0.04887630f, 0.06092810f, 0.14332403f, -0.29698887f, 0.08307028f, 0.29022926f, 0.04305805f, -0.17240208f, 0.12025338f,
    -0.16523005f, 0.11708578f, 0.13427015f, 0.04867353f, -0.00145120f, -0.17119165f, -0.06557392f, -0.05987706f, -0.24159370f, 0.01056614f, 0.17106175f, -0.15406635f, 0.07601356f, -0.23832209f, -0.00438531f, 0.19762449f,
    0.42386109f, 0.06510764f, -0.23820783f, -0.21585377f, 0.12111504f, -0.01114527f, 0.21308838f, -0.17008200f, -0.06513336f, 0.12591018f, 0.10540333f, -0.13310830f, 0.16424902f, -0.07139889f, -0.17305292f, 0.08685923f,
    -0.05845528f, 0.18470311f, -0.11759602f, 0.08676891f, 0.09004985f, 0.26557499f, -0.21541966f, -0.19556946f, 0.18991992f, -0.11894736f, -0.15118381f, -0.11850406f, -0.14337702f, -0.14673799f, 0.15801409f, -0.01077751f,
    0.05109949f, 0.05841465f, 0.14803588f, 0.10244773f, 0.10903740f, 0.15271325f, 0.15807180f, -0.07400183f, 0.34830740f, -0.02568846f, -0.11997702f, -0.32599327f, 0.32557887f, 0.03611907f, -0.00978468f, -0.34881780f,
    -0.06830510f, 0.26554835f, 0.07517274f, -0.09537573f, 0.03105567f, -0.10468094f, 0.01935856f, 0.07337824f, -0.08263429f, -0.05713152f, 0.21100384f, -0.37210715f, 0.06707198f, -0.17934749f, -0.03879534f, 0.21177773f,
    0.01512985f, 0.34186673f, 0.27061954f, 0.06786763f, -0.20218252f, -0.41701764f, 0.12952475f, 0.02521521f, -0.07913932f, 0.14480239f, -0.14227496f, 0.11450454f, 0.18163152f, 0.06959824f, -0.14648582f, 0.05538455f,
    0.17276625f, 0.23712391f, -0.11341931f, 0.38105768f, 0.03951794f, -0.05218742f, -0.03249606f, -0.14899462f, 0.01183268f, 0.34341118f, -0.02518910f, 0.06446032f, 0.27097252f, 0.22646172f, 0.04256986f, -0.06547727f,
    0.00412063f, 0.01938791f, 0.07140064f, -0.12385185f, -0.08666959f, -0.14190629f, -0.09270202f, 0.04067979f, 0.12331288f, 0.03649278f, -0.01548829f, 0.14465816f, -0.27495953f, 0.28556740f, 0.10713480f, -0.03022119f,
    0.10562032f, -0.51519096f, 0.25906095f, -0.20565987f, 0.17534350f, -0.10498513f, 0.17248221f, -0.05390259f, -0.11444735f, 0.04168164f, 0.10207266f, 0.02156754f, -0.18283033f, -0.16637363f, -0.21304691f, 0.27555484f,
    -0.02972710f, 0.21536565f, 0.13297774f, -0.22993171f, 0.30924562f, 0.16776453f, 0.05896527f, -0.16035399f, -0.24627562f, -0.02595344f, 0.13184373f, 0.04844792f, 0.05196096f, -0.04967489f, -0.16187978f, -0.08982230f,
    -0.00589743f, 0.01932789f, 0.32470164f, -0.18356963f, 0.13087086f, 0.07007217f, -0.26598012f, 0.04372738f, 0.00615953f, 0.02665451f, -0.00697007f, -0.03925986f, 0.00571381f, 0.23157282f, 0.35648039f, -0.39504927f,
    -0.18200240f, 0.02902771f, 0.00694960f, 0.03143506f, 0.16332568f, 0.15919243f, -0.09338965f, -0.05901613f, -0.04584839f, 0.00887189f, -0.01242295f, 0.45254406f, 0.30013672f, 0.01524836f, 0.14942265f, 0.36836910f,
    -0.03293261f, -0.40675059f, 0.10384555f, -0.19661917f, -0.18223354f, -0.36116377f, 0.16660368f, -0.08116274f, 0.03335091f, 0.05606211f, 0.13158970f, -0.10004057f, -0.07965366f, -0.06515922f, -0.07866370f, 0.09116957f,
    -0.16839190f, 0.06564549f, 0.39634699f, -0.19123192f, 0.07932919f, 0.02791658f, 0.26937175f, 0.18371135f, -0.10037400f, -0.55677611f, -0.07035952f, 0.14291517f, 0.19017720f, -0.15640582f, 0.01512370f, -0.07613080f,
    -0.14680189f, -0.07160785f, -0.11737738f, -0.14849584f, 0.01727440f, -0.07627477f, 0.20671202f, 0.45809013f, 0.12658700f, 0.08615991f, -0.03067853f, 0.07642055f, 0.03447214f, 0.14743213f, -0.35216764f, -0.49809086f,
    -0.15849455f, -0.12559637f, 0.02742185f, -0.14440028f, 0.09709314f, 0.01629572f, -0.07585109f, -0.23159303f, 0.17536537f, 0.15560783f, 0.04178937f, -0.08482001f, 0.05960148f, 0.39056769f, 0.12593232f, 0.19324020f,
    -0.23660864f, 0.03979442f, 0.20745809f, 0.32324374f, -0.29290807f, -0.35394120f, 0.10584243f, 0.39217794f, 0.14008939f, -0.19581085f, -0.19715780f, -0.00823488f, 0.01816915f, -0.09095511f, -0.13863441f, 0.12563886f,
    0.15375254f, -0.06876940f, -0.06450429f, 0.57087159f, -0.05533052f, 0.16004020f, -0.14585066f, 0.05184491f, 0.19648597f, 0.27916777f, 0.05468913f, 0.07141262f, -0.23356654f, 0.11738465f, -0.11673240f, -0.00218900f,
    -0.07296029f, 0.10984590f, -0.14910293f, 0.04727757f, -0.19413695f, 0.05873582f, 0.20035270f, -0.10137644f, 0.20792991f, 0.41728351f, 0.11732198f, -0.11954478f, -0.16824636f, 0.39613846f, 0.13658074f, -0.07669599f,
    -0.17267396f, -0.32354769f, -0.01944195f, -0.18702924f, 0.22524221f, -0.05323290f, 0.01754551f, 0.11125296f, -0.06939540f, 0.18589059f, 0.09321754f, 0.00040612f, 0.00081322f, 0.05586856f, 0.19012344f, 0.09943475f,
    -0.04215167f, -0.03244998f, -0.35608599f, -0.41704476f, 0.15410241f, 0.45988610f, -0.04290345f, 0.09879407f, -0.04791820f, -0.07665727f, -0.08163466f, -0.03567874f, -0.00679096f, 0.04998499f, 0.19884433f, 0.07848860f,
    -0.16626719f, 0.11845083f, 0.21930674f, -0.25803605f, 0.02479813f, 0.52735192f, -0.13996281f, 0.21175790f, 0.23248710f, 0.02735032f, -0.10484955f, 0.44909281f, 0.33410689f, -0.19691263f, 0.07146031f, 0.28241423f,
    -0.14977451f, 0.00306232f, -0.02590418f, -0.12063494f, -0.08685431f, -0.03240444f, -0.00954123f, 0.06355277f, 0.20945589f, 0.08920041f, 0.30144325f, -0.23791350f, -0.32006699f, 0.21478739f, -0.24412762f, 0.24123223f,
    -0.04230486f, -0.04379446f, 0.32541618f, 0.07447807f, 0.17967787f, 0.07962937f, -0.07483009f, 0.16352701f, 0.00261746f, 0.03954293f, 0.04299304f, -0.17133808f, -0.11560090f, 0.19471703f, -0.15702099f, 0.13171764f,
    0.14355254f, -0.31017184f, -0.21240960f, 0.07896260f, 0.18395242f, -0.29785591f, 0.27529603f, 0.03245055f, 0.08404889f, 0.41416535f, -0.16433132f, 0.07186633f, -0.10435328f, 0.00771306f, 0.06539214f, -0.07435777f,
    0.15046294f, -0.00941811f, -0.01929616f, 0.15262239f, 0.07210729f, -0.04007528f, 0.25038588f, -0.11378133f, -0.09795935f, 0.28505248f, -0.15281214f, -0.08329449f, 0.38585439f, 0.09131090f, -0.03071762f, 0.22963905f,
    -0.47729719f, 0.22427376f, 0.14205669f, -0.11270823f, -0.03099329f, 0.02257611f, 0.16511369f, -0.09698140f, 0.03557731f, -0.09676042f, 0.15294872f, 0.06593560f, 0.00305457f, -0.27886426f, 0.22497752f, 0.22647308f
};
const int64_t policy_actor_0_bias_shape[] = { 256 };
const float policy_actor_0_bias_data[256] = {
    0.11060485f, -0.01258752f, -0.19402975f, 0.12126885f, -0.05104259f, 0.12475484f, 0.00797998f, -0.01507868f, -0.19761205f, -0.10861767f, 0.01552662f, -0.20441221f, -0.05926478f, 0.11987085f, 0.14781861f, 0.16377233f,
    -0.05273209f, 0.01556697f, -0.15165979f, 0.04721247f, 0.05579715f, 0.11181086f, -0.16160153f, 0.18352595f, 0.12448402f, 0.15335408f, -0.05524306f, -0.16520153f, -0.15485504f, -0.20126839f, 0.03848918f, -0.13553375f,
    -0.13512400f, 0.05564337f, 0.23722026f, -0.10336725f, 0.08860229f, -0.04613271f, -0.14194466f, -0.05631743f, -0.13102584f, 0.04764666f, -0.02288197f, -0.16423130f, 0.15067770f, -0.09079743f, -0.14128412f, 0.07111421f,
    -0.01322667f, -0.13825701f, -0.16847847f, -0.13014980f, -0.16269517f, 0.06208090f, -0.08366966f, 0.07720475f, 0.05050515f, 0.02679094f, -0.05648905f, -0.11866569f, 0.01940791f, -0.21072212f, -0.11735041f, 0.12984505f,
    -0.13770351f, 0.13094522f, 0.10298364f, -0.06676958f, -0.18239863f, 0.11951332f, 0.00660096f, 0.19376114f, -0.23315868f, -0.00095320f, -0.16037481f, -0.03306396f, -0.19139598f, -0.25296557f, 0.00680621f, 0.15241663f,
    0.01926221f, -0.02340177f, 0.21576717f, 0.02091121f, -0.10328986f, 0.11153978f, 0.10632155f, 0.23553520f, 0.12652013f, 0.13708298f, -0.13090619f, 0.10909425f, -0.05818254f, -0.03702911f, 0.21372436f, -0.22974657f,
    0.12042254f, -0.21963680f, -0.01321451f, -0.00160324f, -0.04920177f, 0.04859131f, -0.06863455f, 0.23937225f, -0.03715567f, 0.13530402f, -0.04261687f, -0.20675312f, 0.13236825f, -0.07678708f, -0.11184446f, -0.00718448f,
    -0.00758063f, 0.05767874f, -0.07916324f, -0.07266062f, 0.10606621f, 0.11230696f, 0.19499345f, -0.04769199f, -0.10015269f, -0.04650382f, -0.05826780f, -0.06764515f, -0.02403945f, -0.07086509f, 0.09543293f, 0.07001247f,
    0.10891001f, -0.24030215f, 0.18766093f, -0.04414084f, -0.21225503f, 0.11029136f, -0.18555570f, -0.13856928f, -0.03210985f, 0.00419175f, 0.21454208f, -0.15090919f, 0.04684639f, 0.03699851f, 0.14303331f, -0.11331357f,
    0.00535575f, 0.10942758f, 0.08635112f, -0.16405113f, -0.22994439f, -0.15009911f, 0.00927720f, -0.13369773f, -0.07903576f, -0.14009210f, 0.03088809f, -0.07034339f, 0.13253824f, -0.20510463f, -0.08983359f, 0.10946999f,
    -0.16982976f, 0.06918000f, -0.11854558f, -0.08070675f, 0.13032642f, -0.06698740f, 0.06572302f, -0.11029053f, 0.10988814f, 0.12188914f, 0.18367606f, -0.13108647f, -0.23123814f, -0.22206524f, 0.02762360f, 0.10506225f,
    0.16430090f, 0.13648959f, 0.27519909f, -0.15826073f, -0.13874689f, -0.10182283f, 0.14867611f, -0.16419154f, 0.15820087f, 0.02778941f, 0.16548456f, 0.15666597f, 0.19126596f, 0.16440941f, -0.09783848f, -0.12243976f,
    0.05817382f, 0.09365404f, 0.00454768f, -0.10671543f, 0.02569255f, -0.01239011f, 0.14423396f, -0.23013425f, 0.15018566f, 0.03133819f, -0.19025472f, -0.05666688f, -0.11956788f, -0.19774887f, 0.01190614f, -0.01466522f,
    -0.12224749f, -0.09806024f, -0.07289681f, 0.05317095f, -0.25411725f, 0.02706369f, -0.01359566f, -0.19694337f, 0.14626172f, -0.13047159f, 0.17520587f, 0.10714384f, 0.00092903f, 0.15320656f, -0.19525203f, 0.00820619f,
    -0.19653174f, -0.18115824f, 0.08648308f, 0.20053290f, -0.14403713f, -0.10992563f, -0.06949954f, 0.01501770f, -0.27687830f, -0.18176705f, -0.04688761f, 0.23081100f, 0.00104348f, -0.07610337f, 0.13849524f, 0.14351310f,
    0.09854512f, -0.05861165f, -0.00890154f, 0.15009393f, 0.09643310f, 0.21335222f, 0.12438165f, -0.06927495f, 0.18235750f, 0.02403979f, 0.27568710f, 0.18765192f, 0.04479274f, 0.15074965f, 0.10459664f, -0.12730336f
};
const int64_t policy_actor_2_weight_shape[] = { 128, 256 };
const float policy_actor_2_weight_data[32768] = {
    -0.08746606f, -0.05721610f, -0.03042488f, 0.06410691f, -0.05224228f, -0.01765431f, -0.10848414f, -0.09776703f, -0.00211984f, 0.08731302f, 0.05793052f, 0.06430651f, 0.02906295f, -0.09594886f, -0.07410863f, -0.03274160f,
    0.05221457f, -0.11399467f, -0.09811521f, 0.00628725f, -0.11656083f, -0.07490534f, 0.05754555f, -0.06806304f, -0.01550232f, 0.00123213f, -0.06298210f, 0.01213660f, -0.05883387f, 0.05762902f, 0.01964764f, -0.05846339f,
    0.03979175f, -0.03999095f, -0.10513943f, 0.03463870f, 0.02227460f, -0.04374387f, 0.04551070f, -0.04191183f, 0.08299880f, 0.01121293f, 0.06008753f, 0.02442826f, -0.08773186f, 0.02317156f, 0.07404397f, -0.01625118f,
    0.01451932f, -0.03760727f, -0.06812134f, 0.08968013f, -0.00359351f, -0.01465475f, 0.01621100f, -0.00566883f, -0.02358294f, -0.09839942f, -0.01506370f, -0.06406128f, 0.01174203f, -0.00833800f, -0.01896562f, -0.06783760f,
    0.04149552f, 0.03896265f, 0.08400264f, 0.04351006f, -0.05131364f, 0.03252627f, -0.00125260f, 0.04304297f, -0.05065856f, 0.00723770f, -0.02149905f, -0.08344982f, 0.00127312f, -0.02304161f, -0.03712358f, 0.01455418f,
    0.02526765f, -0.06982592f, 0.00308203f, -0.01637581f, -0.00401491f, 0.03495758f, -0.07181600f, -0.14878562f, 0.04129032f, -0.00203744f, 0.03896295f, -0.02357395f, 0.07326642f, -0.04740627f, -0.03253760f, 0.05925504f,
    -0.08348404f, 0.05735257f, -0.04040761f, -0.07657470f, 0.02201693f, -0.04784443f, -0.05234417f, -0.13664317f, -0.08599719f, -0.01128375f, -0.06346653f, -0.05585972f, -0.04285058f, -0.08129876f, -0.14651199f, -0.06884495f,
    -0.03476430f, -0.07177556f, 0.06776311f, -0.07867064f, -0.04392030f, -0.09874045f, 0.03193968f, 0.01863821f, -0.06968936f, 0.00885907f, -0.03486448f, -0.00490786f, 0.05929038f, -0.00223730f, -0.06739680f, -0.05958679f,
    0.01869200f, -0.02611645f, -0.09417670f, 0.03327816f, 0.00585012f, -0.07071798f, 0.02387708f, -0.04082363f, 0.00299730f, -0.11439832f, -0.03585693f, -0.03537561f, -0.07779191f, -0.05143230f, -0.02214686f, -0.00669139f,
    -0.06101215f, -0.04247544f, -0.00500054f, -0.09182432f, 0.05170045f, -0.00366013f, 0.01594814f, -0.10211167f, -0.04725273f, -0.04483317f, -0.02818440f, -0.10044178f, -0.02887195f, -0.00020779f, -0.04421853f, -0.05074764f,
    0.01012921f, -0.07530369f, 0.01700702f, -0.04429760f, -0.01575188f, -0.00312696f, -0.12646700f, 0.06101066f, 0.03607785f, 0.01974834f, 0.02024081f, 0.00404615f, 0.05876739f, 0.05565533f, -0.06117988f, -0.09522979f,
    -0.04645968f, 0.04397035f, 0.00029048f, 0.01863470f, -0.02894293f, 0.01997541f, -0.01227125f, 0.12779596f, -0.03662693f, -0.01765494f, 0.04016582f, 0.05371718f, -0.11398008f, -0.06265298f, 0.02795346f, -0.06686819f,
    -0.01098446f, -0.02955227f, -0.05015651f, -0.02538788f, -0.07672147f, 0.00344697f, -0.03274020f, -0.06152687f, 0.01116232f, -0.00826003f, 0.01277941f, -0.08154700f, -0.08824095f, -0.03203213f, -0.00006221f, -0.12488348f,
    0.02538801f, 0.08495726f, 0.02789169f, -0.08280807f, 0.01147319f, -0.04915234f, -0.02378827f, -0.01242284f, 0.00913427f, -0.03238340f, -0.07508910f, 0.09055258f, -0.03729269f, -0.01468499f, 0.10082534f, 0.05815267f,
    -0.00497043f, 0.02041366f, -0.00261882f, -0.07199328f, -0.02207899f, 0.00783632f, -0.02189291f, -0.03612608f, -0.00123157f, -0.08390078f, 0.00978575f, -0.08807060f, -0.00844315f, -0.06979067f, 0.02012785f, -0.03330043f,
    -0.07509772f, 0.00007300f, -0.11629804f, -0.06840422f, 0.07595490f, -0.08550261f, -0.12056886f, -0.03209866f, -0.11736523f, -0.06779731f, -0.14354980f, -0.02619912f, 0.03782232f, -0.06301202f, -0.01558887f, -0.04146450f,
    -0.04751672f, 0.01952252f, 0.02538124f, 0.06396102f, -0.05455951f, 0.01651466f, -0.00342137f, -0.03902329f, -0.04854123f, 0.08519651f, -0.01308859f, 0.05702255f, 0.04941321f, -0.03835491f, 0.03045604f, 0.03035368f,
    0.00780309f, -0.01601185f, -0.08129822f, 0.04438997f, -0.00918381f, -0.00593977f, -0.04117744f, -0.02011216f, 0.01246574f, 0.01940361f, -0.06872994f, 0.08789957f, -0.00160316f, -0.00857734f, 0.08183839f, 0.04620042f,
    -0.08193735f, 0.03939392f, 0.04694819f, -0.00223901f, -0.07106109f, -0.03343154f, -0.01574836f, -0.04578491f, 0.02803628f, 0.06224603f, 0.11265586f, -0.07371718f, 0.00262091f, -0.03746771f, -0.01449185f, 0.04281988f,
    -0.00163657f, -0.04233943f, 0.01304194f, 0.05838297f, -0.06532900f, -0.04049801f, 0.10089145f, 0.01655928f, 0.00772399f, 0.06032433f, 0.12058756f, -0.00475236f, -0.04449328f, 0.01884517f, -0.03267439f, 0.02979784f,
    -0.00548853f, -0.01130371f, -0.00038766f, 0.01738028f, -0.05630904f, -0.05249552f, 0.00674077f, -0.03926228f, 0.02783003f, -0.00908190f, -0.05548787f, -0.13416848f, -0.03403071f, 0.00982314f, 0.06104656f, 0.01795490f,
    0.06545062f, -0.04424611f, -0.00858494f, -0.03940232f, -0.10242581f, 0.01280154f, 0.02131851f, 0.03184656f, -0.05494636f, 0.02835142f, 0.00088804f, -0.00794031f, 0.03098065f, -0.04975065f, 0.07601328f, -0.07033509f,
    -0.01670704f, 0.06279519f, -0.01119331f, -0.01339333f, -0.03777622f, 0.05173509f, -0.01203977f, -0.01549103f, -0.00329032f, -0.04188907f, -0.04574631f, 0.04324800f, -0.00571354f, -0.03264110f, 0.01860930f, -0.00558476f,
    -0.00233793f, 0.00064601f, 0.02789409f, -0.00673170f, -0.03530863f, -0.05705085f, 0.03072098f, 0.01649230f, 0.02507401f, 0.03931474f, -0.04628550f, -0.01516343f, -0.03560187f, 0.03165708f, 0.03416462f, -0.05119712f,
    -0.01477420f, -0.00300517f, 0.04861948f, 0.02111468f, -0.03299531f, -0.01198171f, -0.02258647f, -0.04322580f, -0.06778882f, -0.04665450f, 0.04238033f, 0.03785772f, 0.06819128f, 0.00848830f, 0.02217415f, -0.00944608f,
    -0.00536049f, 0.01694303f, -0.03384578f, -0.05425343f, -0.00031154f, -0.03144639f, -0.01828769f, 0.05824953f, 0.02598499f, -0.04079140f, -0.02153165f, 0.03961049f, -0.02466275f, 0.03037488f, 0.03060557f, -0.01486026f,
    0.02919991f, 0.01831931f, -0.04254114f, 0.00275585f, -0.04202365f, 0.03685618f, -0.08520415f, 0.04539012f, 0.03185887f, 0.02902399f, -0.00360455f, -0.01211865f, -0.05719474f, -0.04843928f, 0.05829674f, 0.06315432f,
    0.04588668f, -0.00861738f, 0.01009934f, 0.01507800f, -0.06161740f, 0.00997253f, -0.00796938f, 0.03022984f, -0.03122524f, -0.00099204f, 0.08037402f, 0.00895527f, 0.00247697f, 0.00759810f, 0.08029480f, 0.08651990f,
    0.02877833f, -0.00206801f, 0.01917937f, 0.06757224f, 0.05831378f, 0.03103981f, 0.04689200f, 0.01003444f, 0.06294819f, 0.04186621f, -0.03242099f, -0.07520425f, -0.08926962f, -0.00491122f, 0.00758333f, -0.01841459f,
    -0.05183306f, 0.01327163f, 0.01137493f, -0.01050263f, -0.04296340f, 0.03498196f, -0.02596729f, -0.07257225f, -0.06663300f, -0.04735771f, -0.04074702f, 0.01766424f, -0.02098169f, 0.01199163f, 0.10171635f, -0.01723086f,
    0.06592327f, 0.02108322f, -0.00805818f, -0.03051518f, -0.07377660f, -0.01353218f, 0.02371761f, 0.02057854f, -0.06309758f, 0.00871499f, -0.08510728f, 0.05929931f, 0.05560401f, -0.07491706f, 0.11813015f, -0.11865833f,
    0.04772950f, -0.04169618f, -0.02204549f, 0.02218115f, 0.06572746f, 0.01770329f, -0.06235530f, -0.03338874f, -0.01314680f, -0.02568349f, -0.03296409f, 0.00884617f, -0.01742265f, -0.01744918f, 0.01250591f, 0.00494460f,
    0.00608912f, -0.05745962f, 0.08155911f, -0.03930708f, -0.00978107f, -0.02225303f, -0.00746812f, -0.05970097f, -0.02801418f, -0.04505646f, -0.02525281f, -0.04097728f, 0.08096125f, -0.19251513f, 0.03250646f, -0.05874730f,
    -0.03463110f, 0.01252970f, -0.04931437f, -0.00176135f, -0.17133288f, -0.00225216f, -0.00386312f, -0.07700915f, 0.04567911f, 0.04006117f, -0.01639281f, -0.00802330f, 0.03141827f, -0.05507518f, -0.10553015f, 0.07440960f,
    -0.06790607f, -0.00471346f, -0.00006230f, 0.01911661f, 0.05851017f, -0.06614088f, 0.00750602f, -0.08784100f, 0.06447812f, 0.08415014f, -0.01324502f, -0.01975096f, 0.00291227f, -0.03030303f, 0.03027534f, -0.08826406f,
    -0.01183856f, -0.06281064f, -0.07291970f, 0.03284892f, 0.00337694f, -0.05452736f, 0.00282754f, -0.03177743f, 0.02338554f, -0.06336639f, 0.07365179f, -0.03506488f, 0.01450370f, -0.05024847f, -0.00840125f, -0.00846534f,
    0.08520077f, 0.01877983f, 0.03895915f, -0.05043719f, -0.08780487f, -0.01497376f, 0.03088841f, -0.00432701f, -0.08961970f, -0.00785431f, 0.05076909f, -0.07637971f, 0.02059554f, -0.01291537f, 0.01118329f, -0.05630750f,
    0.02250085f, 0.02104297f, 0.04679820f, -0.08614394f, -0.03895105f, 0.01273378f, -0.07832427f, -0.04068990f, -0.02198679f, 0.07393226f, 0.05569531f, -0.06051216f, -0.09175930f, 0.03930053f, 0.02376470f, 0.03503081f,
    0.04500609f, -0.02496509f, -0.00330803f, 0.01960729f, -0.04329305f, 0.02470699f, 0.01265588f, -0.13242640f, -0.11704135f, 0.02314682f, -0.11179140f, 0.03890877f, -0.03440020f, 0.00682097f, -0.03883646f, 0.07951055f,
    -0.10229525f, -0.02627580f, 0.02772757f, -0.03125957f, -0.00539845f, 0.01476770f, -0.02233994f, 0.05258503f, -0.06805963f, 0.07389619f, 0.03648869f, 0.01330442f, -0.04102722f, 0.01478726f, -0.00048809f, -0.10344348f,
    0.06558228f, -0.00045242f, -0.00268113f, -0.04215112f, -0.01643184f, -0.02322255f, -0.01703982f, 0.04020565f, 0.01068676f, 0.00415952f, -0.02339578f, 0.04792443f, 0.05845364f, 0.01983234f, -0.07253978f, -0.02646394f,
    -0.09598131f, -0.05399155f, -0.07179236f, 0.02507720f, -0.05066830f, -0.04051973f, -0.03680732f, 0.00798531f, 0.08043708f, -0.07427513f, -0.02705853f, 0.04337553f, -0.05617158f, -0.06427410f, 0.02086795f, -0.06645242f,
    -0.01292575f, -0.00801153f, 0.05683396f, -0.06809825f, 0.05048763f, 0.01867125f, -0.01335247f, 0.06263360f, -0.07718876f, -0.00654146f, -0.01224515f, 0.05572465f, -0.05935215f, 0.06753346f, 0.03460838f, 0.06797085f,
    -0.00102032f, -0.00311484f, -0.07583415f, -0.03810350f, -0.02507534f, 0.06843128f, -0.01206554f, 0.03892805f, -0.00302472f, -0.00370374f, 0.04075766f, -0.06771284f, 0.04287047f, -0.10728975f, -0.06402588f, 0.00048877f,
    0.05214611f, -0.03528427f, -0.00581940f, -0.03758093f, -0.00935088f, -0.01456591f, 0.03179882f, -0.01621954f, 0.05282066f, -0.00747578f, -0.06292386f, -0.09030452f, -0.04909255f, 0.06640270f, -0.04461717f, -0.03528594f,
    0.01109963f, 0.05494297f, 0.01777772f, 0.01571051f, -0.03919578f, 0.05934452f, -0.00308718f, -0.01192244f, -0.03962725f, 0.01629954f, 0.04299435f, -0.02730315f, -0.09481689f, 0.00532401f, -0.00124161f, -0.04660352f,
    0.02054325f, 0.06022221f, -0.05955624f, -0.07783247f, -0.01270090f, 0.13146877f, -0.03399634f, 0.00196104f, 0.04162127f, 0.03356603f, -0.03764579f, -0.02627802f, 0.07128277f, -0.06533828f, 0.02815024f, -0.05083736f,
    -0.06897579f, -0.04302631f, -0.16497318f, -0.00213615f, -0.04137986f, -0.10556376f, -0.10143661f, -0.05092365f, -0.14230648f, -0.02624624f, -0.03740446f, 0.00887385f, -0.01784226f, -0.01667421f, 0.01320003f, -0.10750698f,
    0.07048464f, 0.04420456f, 0.04733231f, -0.05023641f, 0.04844826f, 0.02818529f, -0.03482774f, 0.03638853f, -0.00644089f, 0.02948512f, 0.07184049f, 0.04348163f, 0.08987241f, -0.07810324f, 0.04549955f, 0.03685529f,
    0.00929532f, -0.05509144f, -0.04865168f, 0.07385647f, 0.01665141f, 0.03251377f, -0.01460662f, -0.00553068f, 0.00133601f, -0.03967992f, -0.03848074f, 0.01450429f, 0.05589586f, -0.04460829f, -0.03503487f, 0.01186750f,
    -0.00141740f, -0.02900160f, -0.04603833f, -0.00692817f, -0.03180633f, 0.00439593f, 0.05210450f, 0.00294178f, -0.01257768f, 0.00835170f, 0.04242295f, 0.00395942f, -0.04279997f, 0.00223499f, 0.03715861f, -0.02450647f,
    0.00441608f, -0.03558626f, 0.02642960f, 0.04643223f, -0.06600501f, 0.03927894f, 0.04734580f, -0.00343697f, -0.05352788f, -0.02102262f, 0.09185767f, 0.02459216f, -0.02497929f, 0.00697883f, 0.05136886f, 0.00131684f,
    0.03984022f, -0.03350270f, 0.01809986f, 0.03663448f, -0.01688714f, -0.00791460f, 0.01373221f, -0.07661009f, 0.01333368f, 0.00743189f, 0.05412778f, -0.00830538f, -0.04489124f, -0.00769849f, 0.07197794f, -0.01431073f,
    0.06576359f, -0.02213042f, 0.04891351f, -0.01954113f, 0.05512147f, 0.02248620f, -0.01001066f, 0.06767984f, -0.00901607f, -0.05893438f, -0.01296712f, 0.03470362f, 0.03299684f, 0.00161783f, -0.04464010f, -0.01480194f,
    0.04656525f, 0.06160772f, -0.05141773f, -0.02434859f, 0.01519740f, -0.03086065f, 0.04449396f, -0.04373650f, -0.04117703f, 0.02989733f, 0.01433442f, 0.01451556f, 0.06542196f, 0.03689807f, -0.03936058f, 0.02899305f,
    0.00114298f, -0.00141700f, -0.04255966f, -0.00973850f, -0.02232159f, -0.06454383f, 0.02449338f, -0.02011728f, 0.05055479f, 0.03157311f, 0.03112842f, 0.01506215f, 0.02544350f, 0.03362807f, 0.03961914f, -0.02041756f,
    -0.02672166f, -0.01596409f, -0.02900244f, -0.01504339f, 0.00707931f, 0.04305555f, -0.04443489f, 0.00700362f, -0.02686222f, -0.05059148f, -0.01038245f, 0.01738315f, 0.04196123f, -0.06531683f, 0.02084896f, 0.05023400f,
    -0.02368939f, 0.00482863f, -0.03234091f, 0.02400384f, 0.03552222f, -0.00849887f, -0.00380315f, 0.05943688f, 0.01067878f, -0.08046364f, 0.01481572f, 0.04189256f, 0.02722041f, 0.02142027f, 0.00127332f, -0.01010201f,
    0.06160765f, -0.05192148f, -0.01518429f, 0.01621909f, -0.04461222f, -0.01508457f, -0.06146917f, -0.04771784f, 0.06549087f, -0.05135230f, -0.02248850f, -0.02348448f, 0.01522144f, 0.05583591f, 0.04349473f, 0.00569890f,
    -0.02127942f, 0.01544465f, 0.00748306f, 0.03025820f, -0.00875422f, -0.04988375f, 0.00683940f, 0.01207285f, 0.01625009f, 0.02657568f, 0.01966926f, 0.02730570f, -0.02814624f, -0.05637215f, 0.06517914f, 0.07009922f,
    -0.02503763f, 0.06981277f, 0.03254976f, -0.00690408f, -0.03161521f, -0.03546020f, 0.07094392f, -0.05178784f, -0.02878712f, 0.05855072f, -0.04493718f, 0.03304103f, 0.00303299f, 0.02979302f, 0.01684995f, 0.00873482f,
    0.03555065f, 0.04858378f, -0.02324777f, -0.05180987f, -0.06410461f, 0.03758479f, 0.00979673f, -0.03340994f, 0.01013641f, 0.01714957f, 0.02176930f, 0.00289343f, 0.01527537f, -0.04526746f, 0.07078904f, -0.07194932f,
    -0.00677581f, -0.02345350f, -0.04391965f, -0.04366315f, -0.06512928f, -0.01718633f, 0.05966607f, -0.00452202f, -0.03722323f, 0.02233481f, -0.03245905f, -0.00181444f, 0.05915999f, -0.07416242f, -0.02119040f, -0.01255499f,
    0.01829974f, -0.07451255f, 0.01810802f, 0.06367896f, 0.00889948f, -0.02350483f, 0.01229182f, 0.06721395f, -0.01944564f, -0.06297782f, -0.00705051f, -0.03760507f, -0.06687476f, 0.03443894f, 0.04018033f, 0.00339354f,
    -0.05887515f, 0.06649384f, 0.07108971f, 0.03375381f, -0.01228239f, 0.01506434f, -0.05216692f, -0.00213675f, -0.02039380f, -0.08155815f, 0.04558318f, -0.00837811f, 0.04516117f, 0.00120596f, -0.00711210f, 0.07838682f,
    0.05439962f, -0.03543755f, -0.02544316f, -0.00799328f, -0.01662305f, -0.06760338f, -0.00508152f, 0.02542792f, -0.00731048f, 0.02069815f, -0.04561978f, -0.01239361f, 0.01170128f, -0.01224045f, -0.05146425f, 0.02240741f,
    -0.08540021f, 0.05102588f, -0.04532639f, -0.03170946f, -0.01460350f, -0.06734442f, -0.01815376f, -0.01103577f, 0.04828676f, -0.04010776f, -0.07534345f, -0.01494065f, -0.05475594f, -0.04688323f, 0.01429403f, 0.04609700f,
    -0.03005579f, 0.01945585f, -0.00664525f, -0.02212833f, 0.04476448f, -0.00719673f, 0.04755433f, -0.07146164f, -0.05199562f, 0.00048959f, 0.00271991f, -0.04760292f, -0.00229644f, -0.09285142f, -0.03437588f, 0.05235143f,
    -0.04666096f, -0.05728462f, -0.00310190f, -0.09129734f, -0.02504316f, -0.03485629f, -0.04741520f, 0.02818543f, -0.04000797f, -0.06289182f, -0.05094567f, 0.00783252f, 0.00571837f, 0.01489517f, -0.06167337f, -0.01509178f,
    0.02644922f, 0.06016560f, 0.06967915f, 0.03432258f, -0.02824410f, -0.04618651f, -0.00581038f, 0.04909871f, -0.02413981f, 0.02380877f, 0.00313337f, -0.06875551f, -0.03358347f, -0.02246561f, 0.00818223f, -0.03619910f,
    0.01599555f, 0.06273907f, -0.00967472f, -0.01500121f, -0.08342295f, -0.00995310f, -0.03576132f, 0.00543093f, 0.05445222f, 0.01124602f, 0.06948230f, -0.00269474f, 0.08875928f, 0.04414216f, -0.08684016f, 0.00308277f,
    0.03058408f, -0.03342752f, -0.05888313f, -0.04487763f, -0.02578406f, -0.02425695f, -0.05497089f, -0.05563907f, 0.03898862f, -0.01611200f, 0.02300707f, -0.05596663f, -0.05536807f, -0.02922183f, 0.00555398f, -0.09390439f,
    0.03389136f, -0.02667053f, -0.08143426f, -0.06815333f, 0.01253976f, -0.05524364f, 0.04855875f, -0.06763372f, 0.03394969f, -0.06509346f, 0.04228013f, -0.01587065f, -0.09018932f, -0.05608311f, -0.04195965f, -0.00819803f,
    0.02884300f, -0.03927712f, -0.01715570f, -0.04384116f, -0.05493379f, 0.04785466f, -0.02948001f, -0.07088808f, 0.02044423f, -0.02249202f, 0.00425854f, -0.00078490f, -0.00780102f, -0.03139346f, -0.01482787f, 0.01720610f,
    0.01853659f, 0.00259974f, 0.05065810f, -0.02065026f, 0.01364335f, -0.01856162f, -0.09995047f, 0.03181908f, 0.05016493f, 0.00800884f, -0.06194963f, 0.05518568f, 0.01360577f, 0.00529295f, -0.00705487f, 0.01571052f,
    -0.03867549f, 0.01965530f, 0.01499046f, 0.01885427f, -0.06638912f, 0.01629019f, -0.07163545f, -0.00410695f, -0.02419034f, 0.04358794f, -0.02483196f, -0.06108424f, 0.03670450f, 0.06463289f, -0.06024912f, -0.02194649f,
    0.00978233f, 0.02356341f, -0.03142478f, -0.00266084f, 0.04784062f, 0.01935059f, 0.06054571f, 0.02356400f, -0.07120369f, 0.01037127f, 0.00251308f, -0.08286550f, -0.06630371f, -0.05838858f, 0.01648480f, 0.08599233f,
    0.00603887f, -0.05693297f, -0.04294415f, -0.08051974f, -0.03243277f, -0.04194816f, -0.04640884f, -0.03192899f, -0.04234098f, -0.02025166f, -0.01410248f, 0.02818438f, -0.07872304f, -0.04537187f, -0.00738743f, 0.04402471f,
    0.06759132f, -0.11169433f, -0.00495141f, -0.05938056f, -0.04560109f, -0.08323247f, 0.04631709f, -0.05036986f, -0.09674277f, -0.04493449f, -0.02752469f, 0.04725207f, 0.06113524f, 0.01951719f, -0.04209887f, -0.09899774f,
    0.03984520f, 0.02412350f, -0.04435984f, -0.00519209f, 0.02575903f, 0.07015482f, -0.06914745f, -0.03179089f, -0.03197459f, 0.04817155f, 0.01506082f, -0.05805423f, -0.00106392f, 0.06534349f, -0.07277831f, 0.02258328f,
    -0.06212432f, 0.02546873f, -0.02258310f, 0.08480559f, -0.00697359f, 0.03906327f, -0.03968540f, 0.03014013f, 0.03560673f, -0.02992241f, -0.03465322f, 0.05415403f, 0.03570167f, -0.00774764f, 0.03702109f, 0.03000848f,
    0.01065974f, 0.00891348f, 0.00797279f, -0.06210243f, -0.02637210f, -0.02100431f, -0.05809475f, -0.02111107f, 0.04276893f, -0.03667372f, -0.00480154f, 0.02033404f, -0.02722499f, 0.07187960f, -0.06385352f, 0.01457657f,
    -0.01874656f, 0.04615086f, -0.05005470f, 0.04913028f, -0.01350590f, -0.05644394f, 0.00149025f, 0.05654353f, 0.06540788f, 0.02250312f, 0.01457377f, -0.08496576f, 0.00449444f, -0.00303293f, -0.04108978f, 0.06908318f,
    -0.02492379f, 0.01924410f, -0.07054742f, -0.05513414f, -0.02342777f, -0.05663345f, 0.00912689f, -0.03640205f, 0.05342641f, 0.03344756f, -0.04192289f, -0.02355130f, -0.11249785f, 0.04648951f, -0.01819728f, 0.03433508f,
